{"learner":{"attributes":{"scikit_learn":"{\"_estimator_type\": \"classifier\"}"},"feature_names":[],"feature_types":[],"gradient_booster":{"model":{"gbtree_model_param":{"num_parallel_tree":"1","num_trees":"300"},"iteration_indptr":[0,3,6,9,12,15,18,21,24,27,30,33,36,39,42,45,48,51,54,57,60,63,66,69,72,75,78,81,84,87,90,93,96,99,102,105,108,111,114,117,120,123,126,129,132,135,138,141,144,147,150,153,156,159,162,165,168,171,174,177,180,183,186,189,192,195,198,201,204,207,210,213,216,219,222,225,228,231,234,237,240,243,246,249,252,255,258,261,264,267,270,273,276,279,282,285,288,291,294,297,300],"tree_info":[0,1,2,0,1,2,0,1,2,0,1,2,0,1,2,0,1,2,0,1,2,0,1,2,0,1,2,0,1,2,0,1,2,0,1,2,0,1,2,0,1,2,0,1,2,0,1,2,0,1,2,0,1,2,0,1,2,0,1,2,0,1,2,0,1,2,0,1,2,0,1,2,0,1,2,0,1,2,0,1,2,0,1,2,0,1,2,0,1,2,0,1,2,0,1,2,0,1,2,0,1,2,0,1,2,0,1,2,0,1,2,0,1,2,0,1,2,0,1,2,0,1,2,0,1,2,0,1,2,0,1,2,0,1,2,0,1,2,0,1,2,0,1,2,0,1,2,0,1,2,0,1,2,0,1,2,0,1,2,0,1,2,0,1,2,0,1,2,0,1,2,0,1,2,0,1,2,0,1,2,0,1,2,0,1,2,0,1,2,0,1,2,0,1,2,0,1,2,0,1,2,0,1,2,0,1,2,0,1,2,0,1,2,0,1,2,0,1,2,0,1,2,0,1,2,0,1,2,0,1,2,0,1,2,0,1,2,0,1,2,0,1,2,0,1,2,0,1,2,0,1,2,0,1,2,0,1,2,0,1,2,0,1,2,0,1,2,0,1,2,0,1,2,0,1,2,0,1,2,0,1,2,0,1,2,0,1,2,0,1,2,0,1,2,0,1,2,0,1,2],"trees":[{"base_weights":[-4.4608974E-8,-6.477018E-2,7.75076E-1,-3.626902E-1,7.341486E-2,2.4223599E-1,1.220339E0,6.233766E-1,-4.2421684E-1,-2.826384E-2,5.471698E-1,-1.918033E-1,7.155963E-1,-3.600001E-2,1.3602484E0,-1.5517244E-1,3.3157894E-1,7.9999995E-1,-4.689957E-1,-1.2038528E-1,4.3902436E-1,3.1003037E-1,1.0127388E0,-3.2432437E-1,1.111111E0,1.2857142E-1,4.228188E-1,-7.663455E-9,3.2727274E-1,-2.3346348E-2,-5.919733E-1,4.4827583E-1,-2.1150284E-1,-2.3076928E-1,7.241379E-1,9.230769E-1,-2.7149364E-2,1.3140496E0,-3.576279E-8,-1.4400001E-1,-7.663455E-9,-7.663455E-9,3.9130437E-1,-8.612442E-2,2.8421053E-1,-5.701359E-2,-2.141606E-1,2.647059E-1,-4.6153862E-2,-9.396754E-2,5.6756746E-2,-2.0000003E-1,1.7999999E-1,3.20339E-1,-1.2113203E-8,3.5257733E-1,-6.206898E-2,-1.2857145E-1,1.5773195E-1,1.2857142E-1,4.1284406E-1,-1.6363637E-1,2.5714284E-1],"categories":[],"categories_nodes":[],"categories_segments":[],"categories_sizes":[],"default_left":[0,0,0,0,0,0,0,0,0,0,0,0,0,0,0,0,0,0,0,0,0,0,0,0,0,0,0,0,0,0,0,0,0,0,0,0,0,0,0,0,0,0,0,0,0,0,0,0,0,0,0,0,0,0,0,0,0,0,0,0,0,0,0],"id":0,"left_children":[1,3,5,7,9,11,13,15,17,19,21,-1,23,-1,25,-1,-1,27,29,31,33,35,37,39,41,-1,-1,-1,-1,43,45,47,49,51,53,55,57,59,61,-1,-1,-1,-1,-1,-1,-1,-1,-1,-1,-1,-1,-1,-1,-1,-1,-1,-1,-1,-1,-1,-1,-1,-1],"loss_changes":[2.3795639E1,1.8035378E1,8.377338E0,8.684006E0,1.4450644E1,7.922637E0,3.851244E0,5.2742357E0,7.568672E0,1.0714224E1,5.5374737E0,0E0,5.3417077E0,0E0,2.1509552E-1,0E0,0E0,1.1636364E0,6.958578E0,1.0855062E1,7.9967647E0,7.5813456E0,5.3231583E0,2.0756751E-1,1.9323673E0,0E0,0E0,0E0,0E0,7.582522E0,4.7473183E0,7.7153997E0,7.382346E0,5.1076922E0,7.216833E0,3.947606E0,5.6755676E0,1.4947319E-1,2.8051949E0,0E0,0E0,0E0,0E0,0E0,0E0,0E0,0E0,0E0,0E0,0E0,0E0,0E0,0E0,0E0,0E0,0E0,0E0,0E0,0E0,0E0,0E0,0E0,0E0],"parents":[2147483647,0,0,1,1,2,2,3,3,4,4,5,5,6,6,7,7,8,8,9,9,10,10,12,12,14,14,17,17,18,18,19,19,20,20,21,21,22,22,23,23,24,24,29,29,30,30,31,31,32,32,33,33,34,34,35,35,36,36,37,37,38,38],"right_children":[2,4,6,8,10,12,14,16,18,20,22,-1,24,-1,26,-1,-1,28,30,32,34,36,38,40,42,-1,-1,-1,-1,44,46,48,50,52,54,56,58,60,62,-1,-1,-1,-1,-1,-1,-1,-1,-1,-1,-1,-1,-1,-1,-1,-1,-1,-1,-1,-1,-1,-1,-1,-1],"split_conditions":[3.195987E-1,-5.9577733E-1,1.7621292E-1,-1.3658084E-1,8.674572E-1,-1.168705E-1,-4.0911514E-1,-2.3621075E-1,-4.1807494E-1,7.503109E-1,2.1415992E-2,-1.918033E-1,-1.166201E0,-3.600001E-2,-8.048539E-1,-1.5517244E-1,3.3157894E-1,-1.5167407E0,-1.0195239E0,-3.474572E-1,-7.25862E-1,-7.5412E-1,3.106317E-1,1.9496152E0,-1.1241376E0,1.2857142E-1,4.228188E-1,-7.663455E-9,3.2727274E-1,1.1800995E0,-8.667919E-1,-8.562746E-2,1.1946878E0,4.5931682E-1,6.76893E-2,8.601791E-4,-7.8681123E-4,-1.4822555E0,-3.135976E-2,-1.4400001E-1,-7.663455E-9,-7.663455E-9,3.9130437E-1,-8.612442E-2,2.8421053E-1,-5.701359E-2,-2.141606E-1,2.647059E-1,-4.6153862E-2,-9.396754E-2,5.6756746E-2,-2.0000003E-1,1.7999999E-1,3.20339E-1,-1.2113203E-8,3.5257733E-1,-6.206898E-2,-1.2857145E-1,1.5773195E-1,1.2857142E-1,4.1284406E-1,-1.6363637E-1,2.5714284E-1],"split_indices":[12,143,1,32,284,36,115,114,52,324,111,0,230,0,50,0,0,0,146,8,141,138,311,0,4,0,0,0,0,221,139,137,143,265,193,23,247,0,0,0,0,0,0,0,0,0,0,0,0,0,0,0,0,0,0,0,0,0,0,0,0,0,0],"split_type":[0,0,0,0,0,0,0,0,0,0,0,0,0,0,0,0,0,0,0,0,0,0,0,0,0,0,0,0,0,0,0,0,0,0,0,0,0,0,0,0,0,0,0,0,0,0,0,0,0,0,0,0,0,0,0,0,0,0,0,0,0,0,0],"sum_hessian":[4.7199997E2,4.3644443E2,3.5555553E1,1.3777777E2,2.9866666E2,1.6888887E1,1.8666666E1,7.5555553E0,1.3022221E2,2.4666666E2,5.1999996E1,5.7777777E0,1.1111111E1,1.7777777E0,1.6888887E1,2.222222E0,5.333333E0,3.9999998E0,1.2622221E2,2.0666666E2,3.9999996E1,3.5555553E1,1.6444443E1,3.111111E0,7.9999995E0,1.3333333E0,1.5555554E1,1.3333333E0,2.6666665E0,2.7555553E1,9.8666664E1,2.7999998E1,1.7866666E2,1.1999999E1,2.7999998E1,1.1999999E1,2.3555553E1,1.2444444E1,3.9999998E0,1.7777777E0,1.3333333E0,1.3333333E0,6.666666E0,2.2222221E1,5.333333E0,2.3555553E1,7.511111E1,1.5999999E1,1.1999999E1,1.4266666E2,3.5999996E1,7.9999995E0,3.9999998E0,1.8666666E1,9.333333E0,9.777777E0,2.222222E0,1.3777777E1,9.777777E0,1.3333333E0,1.1111111E1,2.6666665E0,1.3333333E0],"tree_param":{"num_deleted":"0","num_feature":"384","num_nodes":"63","size_leaf_vector":"1"}},{"base_weights":[-4.4608974E-8,1.2580645E0,-2.8037429E-2,4.0000004E-1,1.2857142E-1,-2.3509374E-1,1.2267654E-1,-2.8262147E-1,3.3934426E-1,-9.240251E-2,4.458204E-1,5.581395E-1,-3.4927633E-1,-1.9720629E-1,4.1501972E-1,5.9315586E-1,-1.9047624E-1,-7.792212E-2,3.8360658E-1,-3.7284902E-1,3.1034482E-1,5.106383E-1,-2.8755766E-1,8.4971094E-1,-4.7191018E-1,4.391371E-1,1.2281879E0,-5.5200005E-1,4.5205477E-1,2.8800002E-1,-1.47541E-1,-1.2884755E-1,2.4861868E-2,-9.473686E-2,2.9032257E-1,-1.1521513E-1,1.1489361E-1,-8.490568E-2,3.767442E-1,1.2857142E-1,-1.9870132E-1,3.6131388E-1,6.9097884E-2,4.0072995E-1,-7.663455E-9,7.2E-2,-2.0642205E-1,-1.0975611E-1,3.512195E-1],"categories":[],"categories_nodes":[],"categories_segments":[],"categories_sizes":[],"default_left":[0,0,0,0,0,0,0,0,0,0,0,0,0,0,0,0,0,0,0,0,0,0,0,0,0,0,0,0,0,0,0,0,0,0,0,0,0,0,0,0,0,0,0,0,0,0,0,0,0],"id":1,"left_children":[1,3,5,-1,-1,7,9,11,-1,13,15,17,19,21,23,25,27,29,-1,31,-1,33,35,37,39,41,43,45,47,-1,-1,-1,-1,-1,-1,-1,-1,-1,-1,-1,-1,-1,-1,-1,-1,-1,-1,-1,-1],"loss_changes":[1.6719324E1,7.3732376E-2,1.4498152E1,0E0,0E0,1.3025171E1,1.8737091E1,1.0836472E1,0E0,8.714694E0,1.0206629E1,6.668798E0,6.1447544E0,8.794936E0,1.1238964E1,8.035057E0,5.127629E0,4.147396E0,0E0,4.5357246E0,0E0,6.2238917E0,7.947257E0,9.197738E0,1.9795709E0,1.1245299E1,2.1874294E0,1.6619453E0,5.196124E0,0E0,0E0,0E0,0E0,0E0,0E0,0E0,0E0,0E0,0E0,0E0,0E0,0E0,0E0,0E0,0E0,0E0,0E0,0E0,0E0],"parents":[2147483647,0,0,1,1,2,2,5,5,6,6,7,7,9,9,10,10,11,11,12,12,13,13,14,14,15,15,16,16,17,17,19,19,21,21,22,22,23,23,24,24,25,25,26,26,27,27,28,28],"right_children":[2,4,6,-1,-1,8,10,12,-1,14,16,18,20,22,24,26,28,30,-1,32,-1,34,36,38,40,42,44,46,48,-1,-1,-1,-1,-1,-1,-1,-1,-1,-1,-1,-1,-1,-1,-1,-1,-1,-1,-1,-1],"split_conditions":[-4.8566544E-1,-3.4543735E-1,-4.4889235E-1,4.0000004E-1,1.2857142E-1,4.6256402E-1,4.9060255E-1,-1.2251753E0,3.3934426E-1,1.061586E0,8.674572E-1,6.2526125E-1,2.1488948E0,-1.1168588E0,4.8402242E-2,3.4971982E-1,1.8441404E-1,-6.685778E-1,3.8360658E-1,1.5424832E0,3.1034482E-1,-5.6295085E-1,1.6284876E-1,-8.8784225E-2,-4.0911514E-1,-2.53723E-1,2.4901906E-1,-2.816293E-1,-2.5620872E-1,2.8800002E-1,-1.47541E-1,-1.2884755E-1,2.4861868E-2,-9.473686E-2,2.9032257E-1,-1.1521513E-1,1.1489361E-1,-8.490568E-2,3.767442E-1,1.2857142E-1,-1.9870132E-1,3.6131388E-1,6.9097884E-2,4.0072995E-1,-7.663455E-9,7.2E-2,-2.0642205E-1,-1.0975611E-1,3.512195E-1],"split_indices":[53,0,51,0,0,89,144,144,0,140,284,337,108,333,12,96,1,299,0,350,0,223,15,137,115,54,67,14,228,0,0,0,0,0,0,0,0,0,0,0,0,0,0,0,0,0,0,0,0],"split_type":[0,0,0,0,0,0,0,0,0,0,0,0,0,0,0,0,0,0,0,0,0,0,0,0,0,0,0,0,0,0,0,0,0,0,0,0,0,0,0,0,0,0,0,0,0,0,0,0,0],"sum_hessian":[4.7199997E2,9.333333E0,4.6266663E2,7.9999995E0,1.3333333E0,1.9466666E2,2.6799997E2,1.8888887E2,5.7777777E0,1.6133333E2,1.0666666E2,1.3333332E1,1.7555554E2,1.3422221E2,2.7111109E1,8.6666664E1,1.9999998E1,7.5555553E0,5.7777777E0,1.7333333E2,2.222222E0,1.4666666E1,1.1955555E2,1.8222221E1,8.888888E0,7.111111E1,1.5555554E1,1.2888888E1,7.1111107E0,1.7777777E0,5.7777777E0,1.5422221E2,1.911111E1,5.333333E0,9.333333E0,1.04888885E2,1.4666666E1,4.8888884E0,1.3333332E1,1.3333333E0,7.5555553E0,1.4222221E1,5.6888885E1,1.4222221E1,1.3333333E0,1.7777777E0,1.1111111E1,3.5555553E0,3.5555553E0],"tree_param":{"num_deleted":"0","num_feature":"384","num_nodes":"49","size_leaf_vector":"1"}},{"base_weights":[-4.4608974E-8,6.023778E-1,-1.299516E-1,-3.2727277E-1,8.4858567E-1,-2.7868095E-1,1.0549446E-1,-6.198348E-1,3.9622638E-1,1.6551721E-1,1.0451612E0,-3.261191E-1,4.8837206E-1,2.2455841E-1,-6.648649E-1,-2.0642205E-1,-7.663455E-9,-1.5517244E-1,3.2727274E-1,-1.894737E-1,6.185567E-1,-2.44898E-1,1.1717647E0,-3.8136992E-1,1.520737E-1,1.0449438E0,-1.836735E-1,6.571737E-2,7.2631574E-1,-2.1329483E-1,-7.663455E-9,3.6734694E-1,-3.764504E-8,-1.7027028E-1,1.2857142E-1,-1.5517244E-1,1.2666667E0,-4.0763623E-1,5.660377E-1,6.4462805E-1,-4.285715E-1,-1.2857145E-1,3.974026E-1,-1.8853979E-1,4.2519683E-1,-4.2857146E-1,9.306122E-1,2.8800002E-1,-1.7560977E-1,4.0441558E-1,-6.206898E-2,-3.1230299E-2,-1.4114055E-1,3.4054056E-1,-1.4400001E-1,-1.6363637E-1,2.9690722E-1,1.2413793E-1,-2.0117651E-1,1.2989691E-1,-9.536426E-2,3.5257733E-1,4.914675E-2,-1.7027028E-1,-7.663455E-9,-9.729732E-2,3.3179724E-1],"categories":[],"categories_nodes":[],"categories_segments":[],"categories_sizes":[],"default_left":[0,0,0,0,0,0,0,0,0,0,0,0,0,0,0,0,0,0,0,0,0,0,0,0,0,0,0,0,0,0,0,0,0,0,0,0,0,0,0,0,0,0,0,0,0,0,0,0,0,0,0,0,0,0,0,0,0,0,0,0,0,0,0,0,0,0,0],"id":2,"left_children":[1,3,5,7,9,11,13,15,17,19,21,23,25,27,29,-1,-1,-1,-1,-1,31,33,35,37,39,41,-1,43,45,-1,-1,-1,47,-1,-1,-1,49,51,53,55,57,-1,-1,59,61,63,65,-1,-1,-1,-1,-1,-1,-1,-1,-1,-1,-1,-1,-1,-1,-1,-1,-1,-1,-1,-1],"loss_changes":[3.710469E1,1.9529688E1,1.3682426E1,4.126181E0,8.79356E0,8.863979E0,1.4060475E1,5.6865597E-1,4.301177E0,6.208648E0,8.725468E0,6.026102E0,9.419965E0,1.0481479E1,6.302757E-1,0E0,0E0,0E0,0E0,0E0,4.039553E0,1.4263651E0,8.224426E0,5.276844E0,7.1720304E0,4.6438046E0,0E0,9.352211E0,7.870247E0,0E0,0E0,0E0,4.1209755E0,0E0,0E0,0E0,5.675598E0,3.7251205E0,4.0505047E0,6.0608335E0,2.6559258E0,0E0,0E0,4.969928E0,8.106775E0,3.2432437E-1,6.350008E0,0E0,0E0,0E0,0E0,0E0,0E0,0E0,0E0,0E0,0E0,0E0,0E0,0E0,0E0,0E0,0E0,0E0,0E0,0E0,0E0],"parents":[2147483647,0,0,1,1,2,2,3,3,4,4,5,5,6,6,7,7,8,8,9,9,10,10,11,11,12,12,13,13,14,14,20,20,21,21,22,22,23,23,24,24,25,25,27,27,28,28,32,32,36,36,37,37,38,38,39,39,40,40,43,43,44,44,45,45,46,46],"right_children":[2,4,6,8,10,12,14,16,18,20,22,24,26,28,30,-1,-1,-1,-1,-1,32,34,36,38,40,42,-1,44,46,-1,-1,-1,48,-1,-1,-1,50,52,54,56,58,-1,-1,60,62,64,66,-1,-1,-1,-1,-1,-1,-1,-1,-1,-1,-1,-1,-1,-1,-1,-1,-1,-1,-1,-1],"split_conditions":[-8.587499E-1,-7.921848E-1,-8.562746E-2,3.6009076E-1,-7.3633003E-1,2.4542563E0,5.7179964E-1,6.75858E-1,-2.2701778E-1,-8.033661E-1,-1.1506162E0,2.2311519E-1,-8.244281E-1,8.6858004E-1,2.0859063E0,-2.0642205E-1,-7.663455E-9,-1.5517244E-1,3.2727274E-1,-1.894737E-1,1.4945465E-1,3.9578747E-2,-4.1406256E-1,2.5088382E0,2.4927166E-1,-4.8609737E-1,-1.836735E-1,1.3338724E-1,-1.0508695E0,-2.1329483E-1,-7.663455E-9,3.6734694E-1,-1.9907077E-1,-1.7027028E-1,1.2857142E-1,-1.5517244E-1,1.0310923E0,-1.20718725E-1,4.6429843E-1,-3.514705E-2,-3.647463E-1,-1.2857145E-1,3.974026E-1,-3.369776E-1,-7.2042733E-1,-7.929221E-1,-2.6655346E-1,2.8800002E-1,-1.7560977E-1,4.0441558E-1,-6.206898E-2,-3.1230299E-2,-1.4114055E-1,3.4054056E-1,-1.4400001E-1,-1.6363637E-1,2.9690722E-1,1.2413793E-1,-2.0117651E-1,1.2989691E-1,-9.536426E-2,3.5257733E-1,4.914675E-2,-1.7027028E-1,-7.663455E-9,-9.729732E-2,3.3179724E-1],"split_indices":[143,227,137,267,146,48,11,1,37,285,322,33,138,192,2,0,0,0,0,0,224,4,97,211,141,234,0,91,96,0,0,0,317,0,0,0,140,29,154,84,118,0,0,118,221,0,79,0,0,0,0,0,0,0,0,0,0,0,0,0,0,0,0,0,0,0,0],"split_type":[0,0,0,0,0,0,0,0,0,0,0,0,0,0,0,0,0,0,0,0,0,0,0,0,0,0,0,0,0,0,0,0,0,0,0,0,0,0,0,0,0,0,0,0,0,0,0,0,0,0,0,0,0,0,0,0,0,0,0,0,0,0,0,0,0,0,0],"sum_hessian":[4.7199997E2,8.311111E1,3.8888885E2,1.7333332E1,6.577777E1,2.3822221E2,1.5066666E2,1.2444444E1,4.8888884E0,1.5111111E1,5.0666664E1,2.2488887E2,1.3333332E1,1.311111E2,1.9555553E1,1.1111111E1,1.3333333E0,2.222222E0,2.6666665E0,5.333333E0,9.777777E0,4.444444E0,4.622222E1,2.0177777E2,2.311111E1,8.888888E0,4.444444E0,1.00444435E2,3.0666664E1,1.8222221E1,1.3333333E0,4.444444E0,5.333333E0,3.111111E0,1.3333333E0,2.222222E0,4.3999996E1,1.9688887E2,4.8888884E0,1.2444444E1,1.0666666E1,1.3333333E0,7.5555553E0,5.9111107E1,4.1333332E1,4.444444E0,2.6222221E1,1.7777777E0,3.5555553E0,4.1777775E1,2.222222E0,3.422222E1,1.6266666E2,3.111111E0,1.7777777E0,2.6666665E0,9.777777E0,2.222222E0,8.444444E0,9.777777E0,4.9333332E1,9.777777E0,3.1555553E1,3.111111E0,1.3333333E0,3.111111E0,2.311111E1],"tree_param":{"num_deleted":"0","num_feature":"384","num_nodes":"67","size_leaf_vector":"1"}},{"base_weights":[9.703274E-4,-5.8543276E-2,5.40872E-1,1.0112287E-1,-2.6503217E-1,6.430599E-1,-1.7020205E-1,7.0372295E-1,8.527616E-3,3.9458317E-1,-4.110544E-1,-1.8757856E-1,7.7484065E-1,-1.6672632E-1,8.4046817E-1,-1.774602E-1,2.9668733E-1,-1.8515584E-1,6.3226694E-1,2.335033E-1,-4.380394E-1,2.2404213E-1,-1.7543E-1,9.1665316E-1,-1.3752909E-1,-1.4055686E-1,9.2390066E-1,-3.1646103E-1,2.480023E-1,5.5348533E-1,-2.7731268E-2,8.5413074E-1,-2.9293382E-1,-5.360835E-1,-6.822559E-2,1.010047E0,-1.3988721E-1,1.957593E-1,-1.665789E-1,3.0614918E-1,-6.8501584E-2,-1.5456548E-1,1.666658E-2,1.9262317E-1,-6.2046718E-2,-3.9736085E-2,2.3593107E-1,-1.10302076E-1,1.7364378E-1,-9.1107816E-2,3.137519E-1,1.13502406E-1,-1.6914596E-1,-1.6932066E-1,1.1125732E-1,1.3329282E-1,-1.4227626E-1,-6.1606046E-2,3.3305275E-1],"categories":[],"categories_nodes":[],"categories_segments":[],"categories_sizes":[],"default_left":[0,0,0,0,0,0,0,0,0,0,0,0,0,0,0,0,0,0,0,0,0,0,0,0,0,0,0,0,0,0,0,0,0,0,0,0,0,0,0,0,0,0,0,0,0,0,0,0,0,0,0,0,0,0,0,0,0,0,0],"id":3,"left_children":[1,3,5,7,9,11,-1,13,15,17,19,21,23,-1,25,27,29,-1,31,-1,33,-1,-1,35,37,-1,39,41,43,45,47,49,51,53,55,57,-1,-1,-1,-1,-1,-1,-1,-1,-1,-1,-1,-1,-1,-1,-1,-1,-1,-1,-1,-1,-1,-1,-1],"loss_changes":[1.4965324E1,1.3858224E1,5.601616E0,1.3235391E1,1.7809164E1,4.8311176E0,0E0,5.9087563E0,1.1131322E1,8.498767E0,5.171274E0,2.9108427E0,4.9315376E0,0E0,3.5890331E0,7.5451403E0,6.80173E0,0E0,5.956211E0,0E0,5.3222904E0,0E0,0E0,4.6395435E0,2.2982602E0,0E0,3.2942982E0,7.0976295E0,5.8058066E0,7.3771935E0,7.830158E0,5.351013E0,1.3263955E0,3.2060356E0,6.8946543E0,3.945692E0,0E0,0E0,0E0,0E0,0E0,0E0,0E0,0E0,0E0,0E0,0E0,0E0,0E0,0E0,0E0,0E0,0E0,0E0,0E0,0E0,0E0,0E0,0E0],"parents":[2147483647,0,0,1,1,2,2,3,3,4,4,5,5,7,7,8,8,9,9,10,10,11,11,12,12,14,14,15,15,16,16,18,18,20,20,23,23,24,24,26,26,27,27,28,28,29,29,30,30,31,31,32,32,33,33,34,34,35,35],"right_children":[2,4,6,8,10,12,-1,14,16,18,20,22,24,-1,26,28,30,-1,32,-1,34,-1,-1,36,38,-1,40,42,44,46,48,50,52,54,56,58,-1,-1,-1,-1,-1,-1,-1,-1,-1,-1,-1,-1,-1,-1,-1,-1,-1,-1,-1,-1,-1,-1,-1],"split_conditions":[5.6253105E-1,-8.562746E-2,1.8157301E0,-3.7929562E-1,-1.1288294E0,-1.1567681E0,-1.7020205E-1,-1.1436771E0,2.2969542E-1,-1.6761687E-1,-8.8689096E-2,-1.9372658E-1,1.126958E0,-1.6672632E-1,-1.3905106E0,1.1946878E0,-1.6191998E-1,-1.8515584E-1,6.4031076E-1,2.335033E-1,-6.173805E-2,2.2404213E-1,-1.7543E-1,1.545687E0,-1.4731318E0,-1.4055686E-1,1.8296658E0,-6.3588016E-2,-2.2419968E-1,-7.685615E-1,-3.6506367E-1,-2.0882235E-1,-5.2398354E-1,2.4691412E0,2.5480995E-1,-1.2595612E0,-1.3988721E-1,1.957593E-1,-1.665789E-1,3.0614918E-1,-6.8501584E-2,-1.5456548E-1,1.666658E-2,1.9262317E-1,-6.2046718E-2,-3.9736085E-2,2.3593107E-1,-1.10302076E-1,1.7364378E-1,-9.1107816E-2,3.137519E-1,1.13502406E-1,-1.6914596E-1,-1.6932066E-1,1.1125732E-1,1.3329282E-1,-1.4227626E-1,-6.1606046E-2,3.3305275E-1],"split_indices":[0,137,249,96,146,197,0,145,316,0,135,121,300,0,221,143,246,0,370,0,136,0,0,76,139,0,239,132,192,315,138,38,166,159,338,346,0,0,0,0,0,0,0,0,0,0,0,0,0,0,0,0,0,0,0,0,0,0,0],"split_type":[0,0,0,0,0,0,0,0,0,0,0,0,0,0,0,0,0,0,0,0,0,0,0,0,0,0,0,0,0,0,0,0,0,0,0,0,0,0,0,0,0,0,0,0,0,0,0,0,0,0,0,0,0,0,0,0,0,0,0],"sum_hessian":[4.637671E2,4.185245E2,4.5242577E1,2.363098E2,1.8221469E2,4.180727E1,3.4353046E0,3.0595774E1,2.0571404E2,3.2717987E1,1.494967E2,5.6665487E0,3.6140724E1,2.6964302E0,2.7899343E1,1.2525468E2,8.045935E1,5.920217E0,2.6797771E1,2.6988256E0,1.4679788E2,1.4276841E0,4.238865E0,3.1274876E1,4.8658466E0,1.3951374E0,2.6504208E1,9.460343E1,3.0651247E1,4.451601E1,3.594334E1,2.1676538E1,5.1212325E0,1.15679596E2,3.1118286E1,2.9548996E1,1.7258803E0,1.4885254E0,3.3773212E0,2.455962E1,1.9445877E0,6.1409325E1,3.3194107E1,1.6201788E1,1.4449459E1,1.1394797E1,3.3121212E1,2.3286217E1,1.2657122E1,2.9962983E0,1.868024E1,1.3583822E0,3.7628505E0,1.125432E2,3.1364036E0,1.3713404E1,1.7404882E1,2.1690772E0,2.737992E1],"tree_param":{"num_deleted":"0","num_feature":"384","num_nodes":"59","size_leaf_vector":"1"}},{"base_weights":[2.1950058E-3,9.4486266E-1,-2.1286504E-2,8.803857E-2,3.030668E-1,3.5331443E-1,-7.937291E-2,-2.7933466E-1,5.693142E-1,9.9968135E-2,-2.1028592E-1,-4.3199065E-1,2.3293643E-1,7.3375285E-1,-9.940488E-4,5.206668E-3,6.519677E-1,-3.2194862E-1,1.446898E-1,2.0119822E-1,-5.932548E-1,8.218872E-1,-1.4294101E-1,-1.8728837E-1,2.4577811E-1,1.6937312E-1,-4.2217478E-1,-1.7311116E-1,9.311858E-1,4.2513013E-1,-3.8044277E-1,-4.5415306E-1,3.2757276E-1,-1.2203138E-1,2.0382586E-1,-2.0019908E-1,7.5666965E-3,-1.2820092E-1,2.6939926E-1,1.1472834E-1,-1.0955598E-1,2.2413643E-1,-1.7275326E-1,3.382401E-1,-8.468665E-2,2.2181605E-1,-1.5593709E-1,-1.4434262E-1,1.892459E-2,-1.97201E-1,1.546467E-1,-3.8376614E-2,1.7983826E-1],"categories":[],"categories_nodes":[],"categories_segments":[],"categories_sizes":[],"default_left":[0,0,0,0,0,0,0,0,0,0,0,0,0,0,0,0,0,0,0,0,0,0,0,0,0,0,0,0,0,0,0,0,0,0,0,0,0,0,0,0,0,0,0,0,0,0,0,0,0,0,0,0,0],"id":4,"left_children":[1,3,5,-1,-1,7,9,11,13,15,17,19,-1,21,23,25,27,29,31,33,35,37,-1,-1,-1,39,41,-1,43,45,47,49,51,-1,-1,-1,-1,-1,-1,-1,-1,-1,-1,-1,-1,-1,-1,-1,-1,-1,-1,-1,-1],"loss_changes":[1.03024435E1,1.8514729E-1,9.911319E0,0E0,0E0,8.516571E0,9.272593E0,2.9524174E0,4.307333E0,8.729447E0,9.08799E0,1.6335194E0,0E0,4.193678E0,6.2765594E0,1.0139471E1,8.92859E0,7.758028E0,6.20215E0,1.3686259E0,5.6988955E-1,3.5777473E0,0E0,0E0,0E0,1.2028349E1,7.6373057E0,0E0,5.1553955E0,4.2726545E0,7.253851E0,2.9690044E0,5.392405E0,0E0,0E0,0E0,0E0,0E0,0E0,0E0,0E0,0E0,0E0,0E0,0E0,0E0,0E0,0E0,0E0,0E0,0E0,0E0,0E0],"parents":[2147483647,0,0,1,1,2,2,5,5,6,6,7,7,8,8,9,9,10,10,11,11,13,13,14,14,15,15,16,16,17,17,18,18,19,19,20,20,21,21,25,25,26,26,28,28,29,29,30,30,31,31,32,32],"right_children":[2,4,6,-1,-1,8,10,12,14,16,18,20,-1,22,24,26,28,30,32,34,36,38,-1,-1,-1,40,42,-1,44,46,48,50,52,-1,-1,-1,-1,-1,-1,-1,-1,-1,-1,-1,-1,-1,-1,-1,-1,-1,-1,-1,-1],"split_conditions":[-4.8566544E-1,-7.421295E-2,-1.0930614E0,8.803857E-2,3.030668E-1,-7.192072E-1,-3.9452255E-1,8.664821E-1,9.136267E-3,1.9741508E-1,6.5311265E-1,-1.2802022E0,2.3293643E-1,1.8517214E0,4.3781352E-1,7.9926956E-1,-7.179141E-1,-8.960813E-2,-1.3112526E0,-1.7200232E-1,2.283736E-1,-1.864003E0,-1.4294101E-1,-1.8728837E-1,2.4577811E-1,4.839806E-3,-8.463797E-1,-1.7311116E-1,5.5068497E-2,7.039436E-1,5.457093E-1,2.3651965E-1,-2.836756E-1,-1.2203138E-1,2.0382586E-1,-2.0019908E-1,7.5666965E-3,-1.2820092E-1,2.6939926E-1,1.1472834E-1,-1.0955598E-1,2.2413643E-1,-1.7275326E-1,3.382401E-1,-8.468665E-2,2.2181605E-1,-1.5593709E-1,-1.4434262E-1,1.892459E-2,-1.97201E-1,1.546467E-1,-3.8376614E-2,1.7983826E-1],"split_indices":[53,28,333,0,0,303,145,234,148,14,139,356,0,237,248,139,265,137,146,33,100,139,0,0,0,12,235,0,108,375,147,113,347,0,0,0,0,0,0,0,0,0,0,0,0,0,0,0,0,0,0,0,0],"split_type":[0,0,0,0,0,0,0,0,0,0,0,0,0,0,0,0,0,0,0,0,0,0,0,0,0,0,0,0,0,0,0,0,0,0,0,0,0,0,0,0,0,0,0,0,0,0,0,0,0,0,0,0,0],"sum_hessian":[4.6352274E2,1.0311898E1,4.5321085E2,1.4409353E0,8.870963E0,6.0159286E1,3.9305154E2,1.5237227E1,4.492206E1,1.659495E2,2.2710205E2,1.3828595E1,1.4086324E0,3.4645912E1,1.0276148E1,1.424966E2,2.3452885E1,1.728292E2,5.427286E1,2.7567677E0,1.1071828E1,3.2593193E1,2.052716E0,5.974844E0,4.301304E0,1.03387085E2,3.910952E1,4.1443806E0,1.9308504E1,1.2094329E1,1.6073486E2,1.23499975E1,4.1922863E1,1.2795129E0,1.4772549E0,9.817044E0,1.2547837E0,1.6067286E0,3.0986465E1,7.412739E1,2.9259695E1,4.0941987E0,3.501532E1,1.6681177E1,2.627326E0,9.23914E0,2.8551898E0,1.3092455E2,2.981033E1,1.0476734E1,1.8732635E0,1.5868248E1,2.6054615E1],"tree_param":{"num_deleted":"0","num_feature":"384","num_nodes":"53","size_leaf_vector":"1"}},{"base_weights":[-3.1643817E-3,4.56521E-1,-1.0910591E-1,-3.5502896E-1,6.186924E-1,-4.8914865E-2,-5.576373E-1,-1.9066755E-1,3.2320842E-1,-2.348824E-1,6.988804E-1,-3.4697723E-1,5.1482216E-2,-6.190029E-1,1.7710963E-1,-1.3149552E-1,2.4303527E-1,-1.7798543E-1,1.9719256E-1,7.9069155E-1,-5.3140827E-2,-5.012046E-1,1.9167954E-1,-1.9739173E-1,2.756424E-1,1.2360067E-1,-6.6220975E-1,-1.3767214E-1,8.4142625E-1,1.9225316E-1,-4.2972073E-1,-6.7425597E-1,-2.0015529E-1,8.7927455E-1,-1.7758322E-1,-2.8494084E-1,5.423442E-1,4.010934E-1,-2.255896E-1,8.58063E-3,-2.0535044E-1,2.714886E-1,-8.223614E-2,-1.6604897E-1,5.4698647E-3,1.8693319E-2,-2.0944534E-1,-1.7451015E-1,5.0254956E-2,3.2709712E-1,-4.654769E-3,-1.8533821E-1,1.0052542E-1,-2.4162872E-2,-1.462769E-1,-1.5564218E-1,2.6725885E-1,-1.5711924E-1,1.4420696E-1,-1.3353425E-1,1.7985487E-1],"categories":[],"categories_nodes":[],"categories_segments":[],"categories_sizes":[],"default_left":[0,0,0,0,0,0,0,0,0,0,0,0,0,0,0,0,0,0,0,0,0,0,0,0,0,0,0,0,0,0,0,0,0,0,0,0,0,0,0,0,0,0,0,0,0,0,0,0,0,0,0,0,0,0,0,0,0,0,0,0,0],"id":5,"left_children":[1,3,5,7,9,11,13,-1,15,17,19,21,23,25,-1,-1,-1,-1,-1,27,29,31,33,35,37,-1,39,-1,41,-1,43,45,47,49,51,53,55,57,59,-1,-1,-1,-1,-1,-1,-1,-1,-1,-1,-1,-1,-1,-1,-1,-1,-1,-1,-1,-1,-1,-1],"loss_changes":[2.268241E1,1.1701048E1,1.019129E1,3.0907357E0,5.1657524E0,1.00369835E1,3.5135536E0,0E0,2.2461364E0,2.6358924E0,4.671379E0,7.1150913E0,1.4075109E1,2.184225E0,0E0,0E0,0E0,0E0,0E0,4.1784325E0,2.4267888E0,3.3013573E0,5.114793E0,7.9053254E0,8.431137E0,0E0,6.5966034E-1,0E0,4.3473473E0,0E0,3.3916557E-1,7.7324295E-1,3.6744142E0,1.3372517E0,3.2623055E0,4.420493E0,5.27357E0,8.087887E0,5.1923513E0,0E0,0E0,0E0,0E0,0E0,0E0,0E0,0E0,0E0,0E0,0E0,0E0,0E0,0E0,0E0,0E0,0E0,0E0,0E0,0E0,0E0,0E0],"parents":[2147483647,0,0,1,1,2,2,3,3,4,4,5,5,6,6,8,8,9,9,10,10,11,11,12,12,13,13,19,19,20,20,21,21,22,22,23,23,24,24,26,26,28,28,30,30,31,31,32,32,33,33,34,34,35,35,36,36,37,37,38,38],"right_children":[2,4,6,8,10,12,14,-1,16,18,20,22,24,26,-1,-1,-1,-1,-1,28,30,32,34,36,38,-1,40,-1,42,-1,44,46,48,50,52,54,56,58,60,-1,-1,-1,-1,-1,-1,-1,-1,-1,-1,-1,-1,-1,-1,-1,-1,-1,-1,-1,-1,-1,-1],"split_conditions":[-8.587499E-1,-8.074461E-1,5.5428624E-1,3.6009076E-1,-2.1031046E-1,-1.5441306E-1,1.5370668E0,-1.9066755E-1,-2.2701778E-1,1.2633897E0,5.592716E-1,-7.051803E-2,-6.254536E-1,-1.9921721E0,1.7710963E-1,-1.3149552E-1,2.4303527E-1,-1.7798543E-1,1.9719256E-1,-4.1406256E-1,-3.0427626E-1,1.3381779E-1,-6.09262E-1,2.4542563E0,5.7706267E-1,1.2360067E-1,-1.358387E0,-1.3767214E-1,1.0310923E0,1.9225316E-1,-2.2839253E-1,-1.2026188E0,-4.691821E-1,-7.066332E-2,5.119943E-3,-7.200148E-2,-5.6062188E-2,-2.8314513E-1,1.6648442E-1,8.58063E-3,-2.0535044E-1,2.714886E-1,-8.223614E-2,-1.6604897E-1,5.4698647E-3,1.8693319E-2,-2.0944534E-1,-1.7451015E-1,5.0254956E-2,3.2709712E-1,-4.654769E-3,-1.8533821E-1,1.0052542E-1,-2.4162872E-2,-1.462769E-1,-1.5564218E-1,2.6725885E-1,-1.5711924E-1,1.4420696E-1,-1.3353425E-1,1.7985487E-1],"split_indices":[143,227,3,267,85,99,198,0,37,260,144,137,142,97,0,0,0,0,0,97,37,95,253,48,139,0,260,0,140,0,36,246,240,0,41,108,141,95,100,0,0,0,0,0,0,0,0,0,0,0,0,0,0,0,0,0,0,0,0,0,0],"split_type":[0,0,0,0,0,0,0,0,0,0,0,0,0,0,0,0,0,0,0,0,0,0,0,0,0,0,0,0,0,0,0,0,0,0,0,0,0,0,0,0,0,0,0,0,0,0,0,0,0,0,0,0,0,0,0,0,0,0,0,0,0],"sum_hessian":[4.637373E2,8.623787E1,3.7749945E2,1.4164687E1,7.207318E1,3.338123E2,4.3687164E1,1.0064698E1,4.099989E0,6.023699E0,6.6049484E1,8.348954E1,2.5032272E2,4.1907814E1,1.7793496E0,1.6379797E0,2.4620094E0,4.536403E0,1.4872954E0,5.8817295E1,7.232186E0,6.495986E1,1.852968E1,1.1867886E2,1.3164386E2,1.3422966E0,4.0565517E1,1.9809568E0,5.6836338E1,2.2971358E0,4.93505E0,4.0461693E1,2.4498167E1,5.991638E0,1.2538043E1,1.0666918E2,1.2009685E1,1.0545085E2,2.6193016E1,1.2592318E0,3.9306286E1,5.3952267E1,2.88407E0,3.6820405E0,1.2530099E0,1.2208657E0,3.924083E1,1.1736595E1,1.2761573E1,4.671317E0,1.3203212E0,6.6353946E0,5.9026484E0,5.3801132E1,5.286805E1,2.8484037E0,9.161281E0,7.9143887E0,9.753646E1,2.1052423E1,5.140592E0],"tree_param":{"num_deleted":"0","num_feature":"384","num_nodes":"61","size_leaf_vector":"1"}},{"base_weights":[1.2332158E-3,1.2752901E-1,-1.674113E-1,-6.446346E-2,3.8460177E-1,-2.7417782E-1,3.970459E-1,-1.6041924E-1,4.7743434E-1,-1.990953E-1,4.6161166E-1,-4.127306E-1,9.332095E-2,1.1444956E-3,8.5564303E-1,2.4913165E-1,-2.0783496E-1,-4.90389E-3,8.610075E-1,-5.3761584E-1,2.2470433E-1,5.863704E-1,3.0908842E-2,-4.4916323E-1,4.2617372E-1,-3.10981E-1,4.528462E-1,2.3763436E-1,-3.0841315E-1,-8.473866E-3,9.437823E-1,-3.7564608E-1,7.892105E-2,-1.7251714E-1,4.1566578E-1,1.0781436E0,-1.2702575E-1,-2.08526E-1,8.734912E-2,-3.275977E-1,6.330802E-1,3.890342E-1,-5.3405297E-1,-4.8352683E-1,2.7825513E-1,-1.2288154E-1,2.564478E-1,4.564004E-1,-4.4041932E-1,7.838998E-1,-2.1222419E-1,5.21505E-1,-1.8580478E-1,8.3586246E-2,2.983968E-1,-1.6248022E-1,-2.8201753E-2,-1.5041421E-1,9.3485065E-2,2.5452474E-1,-1.3552849E-1,8.025681E-3,3.5999385E-1,2.261266E-2,-1.5074055E-1,2.443775E-2,2.1744902E-1,2.2360255E-1,-1.2010947E-1,1.9315334E-2,-1.8948069E-1,-1.5737987E-1,3.6309626E-2,-1.3915603E-1,2.9362282E-1,1.7865101E-3,2.0076771E-1,-1.6573025E-1,1.1520568E-1,2.8052035E-1,-5.84869E-2,-1.7665078E-1,1.767096E-1,-4.3827645E-3,2.2558677E-1],"categories":[],"categories_nodes":[],"categories_segments":[],"categories_sizes":[],"default_left":[0,0,0,0,0,0,0,0,0,0,0,0,0,0,0,0,0,0,0,0,0,0,0,0,0,0,0,0,0,0,0,0,0,0,0,0,0,0,0,0,0,0,0,0,0,0,0,0,0,0,0,0,0,0,0,0,0,0,0,0,0,0,0,0,0,0,0,0,0,0,0,0,0,0,0,0,0,0,0,0,0,0,0,0,0],"id":6,"left_children":[1,3,5,7,9,11,13,15,17,19,21,23,25,27,29,-1,31,33,35,37,-1,39,41,43,45,47,49,-1,51,-1,53,55,57,-1,59,61,-1,-1,-1,63,65,67,69,71,73,-1,-1,75,77,79,81,83,-1,-1,-1,-1,-1,-1,-1,-1,-1,-1,-1,-1,-1,-1,-1,-1,-1,-1,-1,-1,-1,-1,-1,-1,-1,-1,-1,-1,-1,-1,-1,-1,-1],"loss_changes":[9.554277E0,1.2683975E1,1.1685028E1,7.7559752E0,5.0275326E0,8.29359E0,5.620525E0,6.102548E0,4.161189E0,4.734536E0,5.2104454E0,3.795496E0,6.711544E0,4.558177E0,1.1441288E0,0E0,5.864428E0,2.8640704E0,3.948657E0,1.5763576E0,0E0,3.4260597E0,4.843213E0,2.9716625E0,2.2923133E0,2.3733165E0,5.524105E0,0E0,3.7763515E0,0E0,1.6522789E-1,3.5323133E0,6.3122735E0,0E0,2.9660835E0,1.3760252E0,0E0,0E0,0E0,3.426333E-1,3.5884705E0,4.4051247E0,5.841551E-1,2.763729E0,3.4454744E0,0E0,0E0,3.4569478E-1,1.9873154E0,2.6179008E0,3.0247436E0,5.2867866E-1,0E0,0E0,0E0,0E0,0E0,0E0,0E0,0E0,0E0,0E0,0E0,0E0,0E0,0E0,0E0,0E0,0E0,0E0,0E0,0E0,0E0,0E0,0E0,0E0,0E0,0E0,0E0,0E0,0E0,0E0,0E0,0E0,0E0],"parents":[2147483647,0,0,1,1,2,2,3,3,4,4,5,5,6,6,7,7,8,8,9,9,10,10,11,11,12,12,13,13,14,14,16,16,17,17,18,18,19,19,21,21,22,22,23,23,24,24,25,25,26,26,28,28,30,30,31,31,32,32,34,34,35,35,39,39,40,40,41,41,42,42,43,43,44,44,47,47,48,48,49,49,50,50,51,51],"right_children":[2,4,6,8,10,12,14,16,18,20,22,24,26,28,30,-1,32,34,36,38,-1,40,42,44,46,48,50,-1,52,-1,54,56,58,-1,60,62,-1,-1,-1,64,66,68,70,72,74,-1,-1,76,78,80,82,84,-1,-1,-1,-1,-1,-1,-1,-1,-1,-1,-1,-1,-1,-1,-1,-1,-1,-1,-1,-1,-1,-1,-1,-1,-1,-1,-1,-1,-1,-1,-1,-1,-1],"split_conditions":[-8.562746E-2,-1.940435E-1,1.0128301E0,1.3427495E0,-1.3115991E0,-2.0842731E-2,8.841677E-1,-2.9230762E-1,-1.23754725E-1,1.092667E0,-1.6592551E-3,1.6725175E0,-1.0548788E0,-7.4155664E-1,-1.0991883E0,2.4913165E-1,2.8169447E-1,-1.17544204E-1,3.605416E-1,4.019383E-1,2.2470433E-1,-1.2067283E0,1.807329E-1,2.7260423E-1,-7.554265E-2,-7.148622E-2,-1.6445364E-1,2.3763436E-1,-9.4832724E-1,-8.473866E-3,-8.672456E-1,3.2273805E-1,-4.6415064E-1,-1.7251714E-1,2.5601339E-2,-1.0241603E0,-1.2702575E-1,-2.08526E-1,8.734912E-2,-4.8112467E-2,-5.7834315E-1,1.5959169E-1,-6.0860235E-2,5.6253105E-1,-5.9577733E-1,-1.2288154E-1,2.564478E-1,-1.0293641E0,-2.9323697E-1,1.2518888E0,4.637232E-1,-5.96432E-1,-1.8580478E-1,8.3586246E-2,2.983968E-1,-1.6248022E-1,-2.8201753E-2,-1.5041421E-1,9.3485065E-2,2.5452474E-1,-1.3552849E-1,8.025681E-3,3.5999385E-1,2.261266E-2,-1.5074055E-1,2.443775E-2,2.1744902E-1,2.2360255E-1,-1.2010947E-1,1.9315334E-2,-1.8948069E-1,-1.5737987E-1,3.6309626E-2,-1.3915603E-1,2.9362282E-1,1.7865101E-3,2.0076771E-1,-1.6573025E-1,1.1520568E-1,2.8052035E-1,-5.84869E-2,-1.7665078E-1,1.767096E-1,-4.3827645E-3,2.2558677E-1],"split_indices":[137,36,162,326,210,39,164,60,62,141,49,280,375,314,246,0,316,107,2,297,0,336,192,75,20,127,263,0,340,0,319,281,49,0,71,325,0,0,0,109,160,377,125,0,143,0,0,1,185,342,144,51,0,0,0,0,0,0,0,0,0,0,0,0,0,0,0,0,0,0,0,0,0,0,0,0,0,0,0,0,0,0,0,0,0],"split_type":[0,0,0,0,0,0,0,0,0,0,0,0,0,0,0,0,0,0,0,0,0,0,0,0,0,0,0,0,0,0,0,0,0,0,0,0,0,0,0,0,0,0,0,0,0,0,0,0,0,0,0,0,0,0,0,0,0,0,0,0,0,0,0,0,0,0,0,0,0,0,0,0,0,0,0,0,0,0,0,0,0,0,0,0,0],"sum_hessian":[4.4657434E2,2.5548705E2,1.910873E2,1.4668552E2,1.0880152E2,1.6112494E2,2.9962364E1,1.2521689E2,2.1468636E1,1.249678E1,9.630474E1,1.1692087E2,4.4204067E1,1.6618397E1,1.3343967E1,4.9642267E0,1.2025266E2,9.947278E0,1.1521357E1,9.527844E0,2.9689362E0,7.439409E1,2.1910654E1,1.1249972E2,4.4211483E0,2.0869934E1,2.3334133E1,4.2359633E0,1.2382433E1,1.2715888E0,1.2072378E1,7.566381E1,4.458885E1,4.066764E0,5.8805146E0,9.992669E0,1.528687E0,8.142127E0,1.3857176E0,3.324778E0,7.106931E1,1.3600677E1,8.309978E0,1.0774507E2,4.754644E0,1.5138683E0,2.90728E0,2.6475856E0,1.8222347E1,1.5459935E1,7.874199E0,3.1902208E0,9.192212E0,1.3178966E0,1.0754481E1,4.7029175E1,2.863464E1,1.2431715E1,3.215713E1,3.9378715E0,1.942643E0,1.1643546E0,8.828315E0,1.1783485E0,2.1464295E0,1.0404277E1,6.066503E1,9.409406E0,4.191271E0,1.212376E0,7.0976014E0,1.0101457E2,6.730501E0,2.4727662E0,2.2818775E0,1.1793883E0,1.4681973E0,1.6333124E1,1.8892235E0,1.3430546E1,2.0293894E0,5.5368443E0,2.337355E0,1.2406392E0,1.9495815E0],"tree_param":{"num_deleted":"0","num_feature":"384","num_nodes":"85","size_leaf_vector":"1"}},{"base_weights":[3.1236773E-3,-3.5414353E-1,5.0186165E-2,4.0886164E-1,-5.563746E-1,-4.801362E-3,4.3441534E-1,-2.0750079E-1,3.0622724E-1,-6.1805373E-1,2.012897E-1,4.1929975E-1,-6.012992E-2,-1.738375E-1,5.3063935E-1,1.6592439E-1,-1.6140959E-1,-9.416366E-2,-1.9792202E-1,9.533261E-1,1.2674354E-1,3.8569677E-1,-1.18737176E-1,-1.4248026E-2,6.875123E-1,-1.3106707E-1,1.1370864E-1,3.0392388E-1,6.987782E-2,-2.8471902E-1,5.218428E-1,5.7346743E-1,-3.9595857E-1,3.4796527E-1,-1.722368E-1,6.1925834E-1,-4.6965438E-1,-1.3503978E-1,7.660291E-1,-1.8348177E-1,9.988322E-2,2.3180138E-1,-1.5052953E-1,2.1045361E-1,-1.5113404E-1,-1.7878173E-1,9.209983E-2,2.869656E-1,-7.39228E-2,1.0731327E-1,-6.7500174E-2,2.474793E-1,-8.931075E-3,3.383153E-3,-1.7003274E-1,2.656219E-1,2.7289693E-3],"categories":[],"categories_nodes":[],"categories_segments":[],"categories_sizes":[],"default_left":[0,0,0,0,0,0,0,0,0,0,0,0,0,0,0,0,0,0,0,0,0,0,0,0,0,0,0,0,0,0,0,0,0,0,0,0,0,0,0,0,0,0,0,0,0,0,0,0,0,0,0,0,0,0,0,0,0],"id":7,"left_children":[1,3,5,7,9,11,13,15,-1,17,-1,19,21,-1,23,-1,-1,25,-1,27,29,31,33,35,37,-1,-1,-1,-1,39,41,43,45,47,49,51,53,-1,55,-1,-1,-1,-1,-1,-1,-1,-1,-1,-1,-1,-1,-1,-1,-1,-1,-1,-1],"loss_changes":[7.566853E0,8.310446E0,8.402405E0,4.5684676E0,3.5814352E0,8.209949E0,5.1647215E0,1.9532269E0,0E0,8.1910515E-1,0E0,6.1877794E0,8.130743E0,0E0,3.9412785E0,0E0,0E0,8.370972E-1,0E0,3.7263393E-1,4.5771346E0,5.538165E0,6.9073186E0,3.5397542E0,3.5366135E0,0E0,0E0,0E0,0E0,3.0285468E0,4.046364E0,4.434308E0,1.2514184E0,1.0557705E1,6.9789114E0,7.108197E-1,3.389709E-1,0E0,3.045765E0,0E0,0E0,0E0,0E0,0E0,0E0,0E0,0E0,0E0,0E0,0E0,0E0,0E0,0E0,0E0,0E0,0E0,0E0],"parents":[2147483647,0,0,1,1,2,2,3,3,4,4,5,5,6,6,7,7,9,9,11,11,12,12,14,14,17,17,19,19,20,20,21,21,22,22,23,23,24,24,29,29,30,30,31,31,32,32,33,33,34,34,35,35,36,36,38,38],"right_children":[2,4,6,8,10,12,14,16,-1,18,-1,20,22,-1,24,-1,-1,26,-1,28,30,32,34,36,38,-1,-1,-1,-1,40,42,44,46,48,50,52,54,-1,56,-1,-1,-1,-1,-1,-1,-1,-1,-1,-1,-1,-1,-1,-1,-1,-1,-1,-1],"split_conditions":[-1.3081292E0,-6.1020285E-1,7.3172796E-1,1.8239877E-1,2.8727813E0,-3.5195586E-1,-1.1719153E0,-5.648563E0,3.0622724E-1,-1.4273801E0,2.012897E-1,-6.4514554E-1,-1.125159E0,-1.738375E-1,-6.410816E-1,1.6592439E-1,-1.6140959E-1,-1.7967763E0,-1.9792202E-1,1.247525E0,1.6957572E-1,1.1781889E-1,-1.2251753E0,-8.248712E-1,-2.266101E-1,-1.3106707E-1,1.1370864E-1,3.0392388E-1,6.987782E-2,2.6215836E-1,1.7332993E-1,4.169277E-1,1.7166592E0,-1.0251058E-1,-1.1821514E0,5.8077264E-1,-8.7007165E-1,-1.3503978E-1,9.019372E-1,-1.8348177E-1,9.988322E-2,2.3180138E-1,-1.5052953E-1,2.1045361E-1,-1.5113404E-1,-1.7878173E-1,9.209983E-2,2.869656E-1,-7.39228E-2,1.0731327E-1,-6.7500174E-2,2.474793E-1,-8.931075E-3,3.383153E-3,-1.7003274E-1,2.656219E-1,2.7289693E-3],"split_indices":[139,10,98,89,26,63,276,1,0,265,0,142,316,0,48,0,0,139,0,209,341,279,144,216,55,0,0,0,0,202,160,322,200,145,333,1,193,0,99,0,0,0,0,0,0,0,0,0,0,0,0,0,0,0,0,0,0],"split_type":[0,0,0,0,0,0,0,0,0,0,0,0,0,0,0,0,0,0,0,0,0,0,0,0,0,0,0,0,0,0,0,0,0,0,0,0,0,0,0,0,0,0,0,0,0,0,0,0,0,0,0,0,0,0,0,0,0],"sum_hessian":[4.4797894E2,5.1383614E1,3.965953E2,1.0551543E1,4.0832073E1,3.4780762E2,4.878769E1,5.585829E0,4.9657145E0,3.9350945E1,1.4811264E0,3.9379547E1,3.0842807E2,3.7936418E0,4.4994045E1,1.4881501E0,4.0976787E0,3.1405938E0,3.621035E1,1.3138386E1,2.6241161E1,3.5186043E1,2.7324203E2,1.0261299E1,3.4732746E1,1.8658806E0,1.274713E0,1.1756935E1,1.381451E0,1.2991246E1,1.3249914E1,2.858552E1,6.6005235E0,2.7535221E1,2.4570682E2,4.1410193E0,6.12028E0,1.9368227E0,3.2795925E1,8.50169E0,4.489557E0,1.083903E1,2.4108841E0,2.5860466E1,2.7250533E0,5.2571793E0,1.3433443E0,1.3303885E1,1.4231336E1,2.1725115E1,2.239817E2,2.938732E0,1.2022876E0,1.1768029E0,4.943477E0,2.8181622E1,4.6143036E0],"tree_param":{"num_deleted":"0","num_feature":"384","num_nodes":"57","size_leaf_vector":"1"}},{"base_weights":[-4.3774815E-3,2.5816116E-1,-1.2736478E-1,3.690487E-1,-2.7061495E-1,-5.6332227E-2,-4.3985623E-1,-2.8053233E-1,4.9060562E-1,3.9825922E-1,-4.7249907E-1,-5.207181E-1,5.7307356E-3,1.9676876E-1,-4.814331E-1,2.4971096E-1,-1.9313021E-1,-4.9495474E-1,5.731657E-1,-2.529459E-1,2.6924455E-1,1.5940724E-1,-1.9129956E-1,1.7403914E-1,-6.1171407E-1,2.9254684E-1,-8.3866715E-2,2.9544544E-1,-5.388949E-1,-1.8609501E-1,2.3816743E-1,-1.765113E-1,1.4321031E-2,6.2819487E-1,-3.81357E-1,3.6394827E-3,-1.1481511E-1,-1.9316791E-1,1.9393127E-2,-1.7436068E-1,5.5484045E-1,5.4599855E-2,-3.315676E-1,2.4032228E-1,-1.222276E-1,-6.307753E-1,-1.6305399E-1,-9.590236E-2,2.0090553E-1,2.679173E-2,-1.5415959E-1,1.8218729E-1,-1.3778046E-1,-1.1085377E-1,2.0606114E-1,-8.425633E-3,1.7996815E-1,1.4262958E-1,-1.3958178E-1,-1.95386E-1,1.0861252E-2,1.7637697E-1,-1.24905884E-1],"categories":[],"categories_nodes":[],"categories_segments":[],"categories_sizes":[],"default_left":[0,0,0,0,0,0,0,0,0,0,0,0,0,0,0,0,0,0,0,0,0,0,0,0,0,0,0,0,0,0,0,0,0,0,0,0,0,0,0,0,0,0,0,0,0,0,0,0,0,0,0,0,0,0,0,0,0,0,0,0,0,0,0],"id":8,"left_children":[1,3,5,7,9,11,13,15,17,19,21,23,25,-1,27,29,-1,31,33,35,-1,-1,-1,-1,37,39,41,43,45,-1,-1,-1,-1,47,49,-1,-1,-1,-1,51,53,55,57,-1,-1,59,61,-1,-1,-1,-1,-1,-1,-1,-1,-1,-1,-1,-1,-1,-1,-1,-1],"loss_changes":[1.4448957E1,8.470558E0,6.7389193E0,9.489397E0,3.607913E0,7.1916327E0,2.8801718E0,3.879055E0,8.431034E0,2.3122306E0,3.6400752E0,3.3014855E0,5.703979E0,0E0,2.6058779E0,4.549471E0,0E0,4.4765377E-1,5.116852E0,1.2722586E-1,0E0,0E0,0E0,0E0,6.4354515E-1,6.5665474E0,5.82063E0,1.8974065E0,1.6716719E0,0E0,0E0,0E0,0E0,3.6815643E0,4.00356E-1,0E0,0E0,0E0,0E0,4.6802063E0,4.4112434E0,4.9483395E0,6.7818403E0,0E0,0E0,5.8371925E-1,2.4215379E0,0E0,0E0,0E0,0E0,0E0,0E0,0E0,0E0,0E0,0E0,0E0,0E0,0E0,0E0,0E0,0E0],"parents":[2147483647,0,0,1,1,2,2,3,3,4,4,5,5,6,6,7,7,8,8,9,9,10,10,11,11,12,12,14,14,15,15,17,17,18,18,19,19,24,24,25,25,26,26,27,27,28,28,33,33,34,34,39,39,40,40,41,41,42,42,45,45,46,46],"right_children":[2,4,6,8,10,12,14,16,18,20,22,24,26,-1,28,30,-1,32,34,36,-1,-1,-1,-1,38,40,42,44,46,-1,-1,-1,-1,48,50,-1,-1,-1,-1,52,54,56,58,-1,-1,60,62,-1,-1,-1,-1,-1,-1,-1,-1,-1,-1,-1,-1,-1,-1,-1,-1],"split_conditions":[-5.9577733E-1,6.2950146E-1,2.9734665E-1,-4.194129E-1,-7.270861E-1,-3.0382967E-1,-2.872558E0,-7.349641E-2,-2.9023984E-1,-7.151061E-1,-1.3617532E0,-1.3724155E0,-2.0111108E-1,1.9676876E-1,-1.3292998E0,-7.366603E-2,-1.9313021E-1,2.1750702E-1,1.9220456E-1,-7.019441E-2,2.6924455E-1,1.5940724E-1,-1.9129956E-1,1.7403914E-1,1.6987319E0,-9.0036735E-2,-2.3159435E-1,7.056365E-1,8.600725E-1,-1.8609501E-1,2.3816743E-1,-1.765113E-1,1.4321031E-2,-3.2918537E-1,-1.7442569E-1,3.6394827E-3,-1.1481511E-1,-1.9316791E-1,1.9393127E-2,-8.861333E-2,-1.0355319E0,1.0501101E0,-1.23054735E-1,2.4032228E-1,-1.222276E-1,9.995314E-1,-9.1678363E-1,-9.590236E-2,2.0090553E-1,2.679173E-2,-1.5415959E-1,1.8218729E-1,-1.3778046E-1,-1.1085377E-1,2.0606114E-1,-8.425633E-3,1.7996815E-1,1.4262958E-1,-1.3958178E-1,-1.95386E-1,1.0861252E-2,1.7637697E-1,-1.24905884E-1],"split_indices":[143,144,11,145,212,67,45,127,100,206,357,250,67,0,309,127,0,298,12,129,0,0,0,0,340,137,159,26,247,0,0,0,0,89,1,0,0,0,0,135,249,292,21,0,0,21,294,0,0,0,0,0,0,0,0,0,0,0,0,0,0,0,0],"split_type":[0,0,0,0,0,0,0,0,0,0,0,0,0,0,0,0,0,0,0,0,0,0,0,0,0,0,0,0,0,0,0,0,0,0,0,0,0,0,0,0,0,0,0,0,0,0,0,0,0,0,0,0,0,0,0,0,0,0,0,0,0,0,0],"sum_hessian":[4.4547134E2,1.4175996E2,3.0371136E2,1.1743517E2,2.4324797E1,2.4842259E2,5.5288776E1,1.830552E1,9.9129654E1,5.4141493E0,1.8910648E1,2.8415274E1,2.2000732E2,1.4810275E0,5.3807747E1,7.5689917E0,1.0736528E1,7.276108E0,9.1853546E1,2.5635178E0,2.8506312E0,2.358557E0,1.6552092E1,1.7590733E0,2.66562E1,5.182902E1,1.681783E2,3.420555E0,5.038719E1,2.858675E0,4.7103167E0,6.135757E0,1.1403508E0,8.716998E1,4.6835604E0,1.1404628E0,1.4230552E0,2.5491404E1,1.1647979E0,1.8763487E1,3.3065536E1,1.08375305E2,5.9802998E1,1.9081553E0,1.5123998E0,3.9943947E1,1.0443248E1,3.3744206E0,8.379556E1,1.1005386E0,3.5830216E0,4.709983E0,1.4053504E1,3.9078248E0,2.9157711E1,9.492926E1,1.3446042E1,8.1367035E0,5.1666294E1,3.877504E1,1.1689062E0,2.3008006E0,8.1424465E0],"tree_param":{"num_deleted":"0","num_feature":"384","num_nodes":"63","size_leaf_vector":"1"}},{"base_weights":[1.1353364E-3,-4.934337E-2,3.1126118E-1,2.9422733E-1,-1.1195362E-1,7.1127725E-1,8.0007635E-2,5.873935E-1,5.2790754E-3,-1.6455878E-1,3.434077E-1,8.226436E-1,-7.23538E-2,-1.8046841E-1,2.480278E-1,7.522751E-1,2.577173E-2,-5.1673234E-1,2.8452185E-1,2.9118213E-1,-2.0144291E-1,6.251521E-1,-2.872691E-1,9.142225E-1,-1.0764082E-1,-4.2269805E-1,4.1034618E-1,8.412867E-1,7.4696384E-2,-4.5054004E-1,1.478868E-1,-1.7982404E-1,3.234484E-2,-2.6179397E-1,5.5678475E-1,-4.8512822E-1,6.918206E-1,1.2935424E-1,-2.6296896E-1,-1.21790685E-1,7.275043E-1,-1.7791954E-1,2.1243896E-1,6.939242E-2,2.8581366E-1,-1.8869543E-1,7.771104E-2,6.5647525E-1,-5.6219094E-2,2.651002E-1,4.2880174E-2,-1.19238965E-1,1.438822E-1,-1.6413435E-1,-3.8920987E-2,-1.6438363E-1,1.6805762E-1,2.3426178E-1,-9.245865E-2,7.8144886E-2,-2.00108E-1,2.4137571E-1,-1.0542408E-1,1.5695326E-1,-6.2936865E-2,-9.285618E-2,6.475061E-2,-7.061218E-2,2.5972444E-1,2.3541608E-1,-1.2267382E-1,1.9959895E-1,-1.5313429E-1],"categories":[],"categories_nodes":[],"categories_segments":[],"categories_sizes":[],"default_left":[0,0,0,0,0,0,0,0,0,0,0,0,0,0,0,0,0,0,0,0,0,0,0,0,0,0,0,0,0,0,0,0,0,0,0,0,0,0,0,0,0,0,0,0,0,0,0,0,0,0,0,0,0,0,0,0,0,0,0,0,0,0,0,0,0,0,0,0,0,0,0,0,0],"id":9,"left_children":[1,3,5,7,9,11,13,15,17,19,21,23,-1,-1,25,27,29,31,33,35,37,39,41,43,-1,45,47,49,51,53,-1,-1,-1,55,57,59,61,63,65,-1,67,-1,-1,-1,-1,-1,-1,69,71,-1,-1,-1,-1,-1,-1,-1,-1,-1,-1,-1,-1,-1,-1,-1,-1,-1,-1,-1,-1,-1,-1,-1,-1],"loss_changes":[6.668053E0,7.913267E0,5.458684E0,4.8037124E0,7.4965925E0,2.5018158E0,4.6049676E0,2.5880327E0,4.4598374E0,4.750302E0,5.9525766E0,2.4561281E0,0E0,0E0,3.6488616E0,1.2478476E0,1.8745468E0,6.1541796E-1,3.1087737E0,6.962284E0,5.3012533E0,2.6986198E0,3.6822298E0,2.6684952E-1,0E0,1.1069452E0,3.0466938E0,4.3931198E-1,8.828569E-1,5.91259E-2,0E0,0E0,0E0,2.0253806E0,2.8796182E0,1.2371267E0,1.9844913E0,5.6200705E0,4.9379244E0,0E0,3.0089283E0,0E0,0E0,0E0,0E0,0E0,0E0,2.6759853E0,3.6081195E0,0E0,0E0,0E0,0E0,0E0,0E0,0E0,0E0,0E0,0E0,0E0,0E0,0E0,0E0,0E0,0E0,0E0,0E0,0E0,0E0,0E0,0E0,0E0,0E0],"parents":[2147483647,0,0,1,1,2,2,3,3,4,4,5,5,6,6,7,7,8,8,9,9,10,10,11,11,14,14,15,15,16,16,17,17,18,18,19,19,20,20,21,21,22,22,23,23,25,25,26,26,27,27,28,28,29,29,33,33,34,34,35,35,36,36,37,37,38,38,40,40,47,47,48,48],"right_children":[2,4,6,8,10,12,14,16,18,20,22,24,-1,-1,26,28,30,32,34,36,38,40,42,44,-1,46,48,50,52,54,-1,-1,-1,56,58,60,62,64,66,-1,68,-1,-1,-1,-1,-1,-1,70,72,-1,-1,-1,-1,-1,-1,-1,-1,-1,-1,-1,-1,-1,-1,-1,-1,-1,-1,-1,-1,-1,-1,-1,-1],"split_conditions":[1.2463872E0,-1.3081292E0,-5.9122026E-1,-8.5919596E-2,1.9036394E0,1.3471725E0,-1.13153E0,5.5024815E-1,-1.6110292E-1,-4.8382702E-1,3.0985892E-1,4.618724E-1,-7.23538E-2,-1.8046841E-1,-1.0146976E0,2.2394347E-1,-3.5285786E-1,3.670203E-1,-3.7140757E-1,-1.233839E0,-1.1151633E0,-9.112539E-1,1.0722584E0,-1.5672219E0,-1.0764082E-1,2.3674848E-2,-3.8965266E-2,3.4191194E-1,1.6147093E-1,4.069803E-2,1.478868E-1,-1.7982404E-1,3.234484E-2,1.8495673E-1,-8.427121E-3,-9.386538E-1,-2.2969499E-1,3.9617434E-1,1.777015E0,-1.21790685E-1,-5.160131E-1,-1.7791954E-1,2.1243896E-1,6.939242E-2,2.8581366E-1,-1.8869543E-1,7.771104E-2,7.8807615E-2,-2.81673E-1,2.651002E-1,4.2880174E-2,-1.19238965E-1,1.438822E-1,-1.6413435E-1,-3.8920987E-2,-1.6438363E-1,1.6805762E-1,2.3426178E-1,-9.245865E-2,7.8144886E-2,-2.00108E-1,2.4137571E-1,-1.0542408E-1,1.5695326E-1,-6.2936865E-2,-9.285618E-2,6.475061E-2,-7.061218E-2,2.5972444E-1,2.3541608E-1,-1.2267382E-1,1.9959895E-1,-1.5313429E-1],"split_indices":[143,139,203,137,149,144,383,264,55,8,97,303,0,0,347,68,349,69,197,8,146,370,361,354,0,20,181,121,5,13,0,0,0,323,217,356,60,291,166,0,217,0,0,0,0,0,0,12,161,0,0,0,0,0,0,0,0,0,0,0,0,0,0,0,0,0,0,0,0,0,0,0,0],"split_type":[0,0,0,0,0,0,0,0,0,0,0,0,0,0,0,0,0,0,0,0,0,0,0,0,0,0,0,0,0,0,0,0,0,0,0,0,0,0,0,0,0,0,0,0,0,0,0,0,0,0,0,0,0,0,0,0,0,0,0,0,0,0,0,0,0,0,0,0,0,0,0,0,0],"sum_hessian":[4.239633E2,3.6533856E2,5.8624706E1,5.5744427E1,3.0959415E2,2.071563E1,3.7909073E1,2.7157562E1,2.8586863E1,2.7810498E2,3.1489174E1,1.8669039E1,2.0465913E0,6.986845E0,3.092223E1,2.0731667E1,6.425897E0,9.6663265E0,1.8920534E1,2.030624E1,2.5779874E2,2.177176E1,9.717415E0,1.7535938E1,1.1331015E0,5.712621E0,2.5209608E1,1.8110884E1,2.6207826E0,3.199507E0,3.2263901E0,8.571792E0,1.0945351E0,6.305843E0,1.2614692E1,6.8405447E0,1.3465694E1,4.025638E1,2.1754236E2,1.6981174E0,2.0073643E1,7.742912E0,1.9745026E0,1.3095977E0,1.622634E1,4.444986E0,1.2676356E0,1.6237E1,8.972609E0,1.6824505E1,1.2863786E0,1.2184098E0,1.4023728E0,1.9169722E0,1.2825348E0,4.9247994E0,1.3810431E0,1.0096309E1,2.5183835E0,1.2568059E0,5.583739E0,1.2358591E1,1.1071042E0,1.8375542E1,2.1880838E1,1.9858823E2,1.8954138E1,2.4319983E0,1.7641645E1,1.4727619E1,1.5093803E0,3.286773E0,5.685836E0],"tree_param":{"num_deleted":"0","num_feature":"384","num_nodes":"73","size_leaf_vector":"1"}},{"base_weights":[4.933598E-3,-3.1974676E-1,4.5029465E-2,3.3545616E-1,-5.1392347E-1,3.2935463E-4,3.5941428E-1,-1.9538914E-1,7.9400665E-1,-5.7614213E-1,1.7186126E-1,3.0461735E-1,-5.5580277E-2,-1.6106276E-1,4.4192806E-1,1.4313813E-1,-1.5063125E-1,2.629307E-1,8.641472E-2,-8.647279E-2,-1.8564305E-1,4.2082137E-1,-4.05861E-1,8.585815E-2,-2.2543283E-1,5.0379956E-1,-1.363121E-1,-1.2346716E-1,1.037874E-1,-3.3429354E-1,5.320857E-1,8.225628E-2,-1.735869E-1,-1.5790295E-2,3.8386205E-1,-3.078673E-1,2.0225206E-1,6.0879195E-1,-1.3677187E-1,9.743533E-2,-1.6752413E-1,2.0714144E-1,-2.6259775E-4,-1.10479414E-1,2.873334E-2,1.6043359E-1,-1.0350092E-1,-1.069778E-1,9.84437E-2,-3.9725877E-2,2.1600492E-1,1.9688417E-1,-1.0866893E-1,-1.6150269E-1,1.3126066E-1],"categories":[],"categories_nodes":[],"categories_segments":[],"categories_sizes":[],"default_left":[0,0,0,0,0,0,0,0,0,0,0,0,0,0,0,0,0,0,0,0,0,0,0,0,0,0,0,0,0,0,0,0,0,0,0,0,0,0,0,0,0,0,0,0,0,0,0,0,0,0,0,0,0,0,0],"id":10,"left_children":[1,3,5,7,9,11,13,15,17,19,-1,21,23,-1,25,-1,-1,-1,-1,27,-1,29,31,33,35,37,-1,-1,-1,39,41,-1,-1,43,45,47,49,51,53,-1,-1,-1,-1,-1,-1,-1,-1,-1,-1,-1,-1,-1,-1,-1,-1],"loss_changes":[5.595782E0,6.183699E0,5.374929E0,2.9317582E0,2.8213072E0,5.730983E0,3.7584572E0,1.4955784E0,1.1021376E-2,6.849842E-1,0E0,4.4877152E0,6.8560896E0,0E0,2.6770906E0,0E0,0E0,0E0,0E0,7.040564E-1,0E0,3.9946995E0,1.0819781E0,4.7316747E0,4.6307087E0,2.8925257E0,0E0,0E0,0E0,1.1338668E0,3.3755074E0,0E0,0E0,4.6475325E0,4.55338E0,3.4960327E0,3.8283923E0,1.9010658E0,1.7804422E0,0E0,0E0,0E0,0E0,0E0,0E0,0E0,0E0,0E0,0E0,0E0,0E0,0E0,0E0,0E0,0E0],"parents":[2147483647,0,0,1,1,2,2,3,3,4,4,5,5,6,6,7,7,8,8,9,9,11,11,12,12,14,14,19,19,21,21,22,22,23,23,24,24,25,25,29,29,30,30,33,33,34,34,35,35,36,36,37,37,38,38],"right_children":[2,4,6,8,10,12,14,16,18,20,-1,22,24,-1,26,-1,-1,-1,-1,28,-1,30,32,34,36,38,-1,-1,-1,40,42,-1,-1,44,46,48,50,52,54,-1,-1,-1,-1,-1,-1,-1,-1,-1,-1,-1,-1,-1,-1,-1,-1],"split_conditions":[-1.3081292E0,-6.1020285E-1,7.3172796E-1,1.8239877E-1,2.8727813E0,-2.9651338E-1,-1.1719153E0,-5.648563E0,-6.9231254E-1,-1.4273801E0,1.7186126E-1,1.0740278E0,-7.081968E-2,-1.6106276E-1,1.0390013E0,1.4313813E-1,-1.5063125E-1,2.629307E-1,8.641472E-2,-1.7967763E0,-1.8564305E-1,-1.1096932E0,-6.866969E-1,5.35627E-1,8.299498E-1,1.012875E0,-1.363121E-1,-1.2346716E-1,1.037874E-1,-4.8488495E-1,6.014398E-1,8.225628E-2,-1.735869E-1,-7.4970853E-1,5.9924394E-1,1.6932857E0,3.8548E-1,1.7020081E0,4.7781396E-1,9.743533E-2,-1.6752413E-1,2.0714144E-1,-2.6259775E-4,-1.10479414E-1,2.873334E-2,1.6043359E-1,-1.0350092E-1,-1.069778E-1,9.84437E-2,-3.9725877E-2,2.1600492E-1,1.9688417E-1,-1.0866893E-1,-1.6150269E-1,1.3126066E-1],"split_indices":[139,10,98,89,26,63,276,1,48,265,0,339,364,0,14,0,0,0,0,139,0,271,337,193,347,281,0,0,0,140,360,0,0,292,260,252,295,333,186,0,0,0,0,0,0,0,0,0,0,0,0,0,0,0,0],"split_type":[0,0,0,0,0,0,0,0,0,0,0,0,0,0,0,0,0,0,0,0,0,0,0,0,0,0,0,0,0,0,0,0,0,0,0,0,0,0,0,0,0,0,0,0,0,0,0,0,0,0,0,0,0,0,0],"sum_hessian":[4.2773233E2,4.6249306E1,3.8148303E2,1.0406723E1,3.5842583E1,3.3487115E2,4.661187E1,5.0891356E0,5.3175874E0,3.434615E1,1.496436E0,5.1288002E1,2.8358316E2,3.4652078E0,4.314666E1,1.4199939E0,3.6691418E0,3.9429793E0,1.3746084E0,2.99551E0,3.1350637E1,4.4429E1,6.859001E0,1.550039E2,1.2857925E2,4.0770214E1,2.3764462E0,1.737555E0,1.2579551E0,5.448347E0,3.898065E1,1.2705624E0,5.588439E0,1.1628602E2,3.871788E1,1.0803594E2,2.0543318E1,3.5071465E1,5.6987505E0,1.2685946E0,4.1797523E0,2.9822456E1,9.158196E0,2.740506E1,8.888096E1,3.2296875E1,6.4210052E0,1.0075627E2,7.2796707E0,1.2929935E1,7.6133833E0,3.3745262E1,1.3262038E0,3.390588E0,2.3081625E0],"tree_param":{"num_deleted":"0","num_feature":"384","num_nodes":"55","size_leaf_vector":"1"}},{"base_weights":[-6.1292714E-3,1.8338734E-1,-1.2587214E-1,2.8011075E-1,-2.3414621E-1,-8.72994E-2,-5.252086E-1,-2.4893257E-1,4.1844594E-1,3.5588887E-1,-4.0523136E-1,1.45492E-2,-2.8876528E-1,7.0591584E-2,-1.7860217E-1,1.5825437E-1,-5.7546145E-1,5.21003E-1,-3.7632865E-1,-1.4861324E-1,2.2916752E-1,1.3945873E-1,-5.160435E-1,-3.206956E-1,1.20272286E-1,6.0519403E-1,-3.4285825E-1,-9.792693E-2,1.1914436E-1,-5.147738E-1,7.205198E-1,3.1943593E-2,-1.8856713E-1,-1.5585813E-1,5.700881E-1,-1.795812E-1,1.714517E-1,8.6316295E-2,-1.2742722E-1,-5.8548623E-1,1.05652906E-1,3.266905E-1,-4.803387E-1,2.2269829E-1,-2.823454E-1,-1.1240967E-1,3.0356896E-1,2.2968285E-1,-3.8225767E-1,1.1216164E-2,-1.8581852E-1,4.2598184E-2,2.4720617E-1,1.8282863E-1,-1.4867333E-1,-1.870425E-1,2.0423919E-2,-8.5096724E-2,2.1340977E-1,5.7879258E-2,-1.7171508E-1,-1.3768381E-1,9.001323E-2,-1.3739982E-1,1.5459824E-1,-1.4329147E-1,2.4277238E-2],"categories":[],"categories_nodes":[],"categories_segments":[],"categories_sizes":[],"default_left":[0,0,0,0,0,0,0,0,0,0,0,0,0,0,0,0,0,0,0,0,0,0,0,0,0,0,0,0,0,0,0,0,0,0,0,0,0,0,0,0,0,0,0,0,0,0,0,0,0,0,0,0,0,0,0,0,0,0,0,0,0,0,0,0,0,0,0],"id":11,"left_children":[1,3,5,7,9,11,13,15,17,19,21,23,25,27,-1,29,31,33,35,37,-1,-1,39,41,43,45,47,-1,-1,49,51,-1,-1,-1,53,-1,-1,-1,-1,55,-1,57,59,61,63,-1,-1,-1,65,-1,-1,-1,-1,-1,-1,-1,-1,-1,-1,-1,-1,-1,-1,-1,-1,-1,-1],"loss_changes":[9.640798E0,6.7091403E0,3.9638233E0,9.912393E0,3.3225393E0,4.899621E0,9.9177885E-1,3.8679714E0,8.886013E0,1.6798923E0,2.638318E0,5.6889153E0,4.083764E0,5.558872E-1,0E0,5.4516764E0,6.455469E-1,5.14044E0,3.0315354E0,6.3304776E-1,0E0,0E0,1.565125E0,4.135313E0,5.090925E0,2.3459973E0,3.6216002E0,0E0,0E0,4.0988255E-1,3.4595633E-1,0E0,0E0,0E0,4.1192436E0,0E0,0E0,0E0,0E0,5.699377E-1,0E0,2.1293523E0,2.049142E0,5.2917166E0,3.7624612E0,0E0,0E0,0E0,3.3200073E0,0E0,0E0,0E0,0E0,0E0,0E0,0E0,0E0,0E0,0E0,0E0,0E0,0E0,0E0,0E0,0E0,0E0,0E0],"parents":[2147483647,0,0,1,1,2,2,3,3,4,4,5,5,6,6,7,7,8,8,9,9,10,10,11,11,12,12,13,13,15,15,16,16,17,17,18,18,19,19,22,22,23,23,24,24,25,25,26,26,29,29,30,30,34,34,39,39,41,41,42,42,43,43,44,44,48,48],"right_children":[2,4,6,8,10,12,14,16,18,20,22,24,26,28,-1,30,32,34,36,38,-1,-1,40,42,44,46,48,-1,-1,50,52,-1,-1,-1,54,-1,-1,-1,-1,56,-1,58,60,62,64,-1,-1,-1,66,-1,-1,-1,-1,-1,-1,-1,-1,-1,-1,-1,-1,-1,-1,-1,-1,-1,-1],"split_conditions":[-4.7986385E-1,4.798169E-1,3.8506463E-1,-3.894183E-1,-7.270861E-1,2.6800305E-1,-6.167075E-1,-7.3477454E-2,-1.3862956E-2,-4.1294938E-1,-1.3617532E0,-1.6412951E-1,-1.1818643E0,7.685297E-2,-1.7860217E-1,-2.1406826E-1,-1.1489297E0,-1.0006036E0,1.1573157E0,-4.626153E-2,2.2916752E-1,1.3945873E-1,2.7310356E-1,-4.600892E-1,8.191036E-1,-3.7685716E-1,-1.4316628E0,-9.792693E-2,1.1914436E-1,-9.8444223E-1,-6.946524E-1,3.1943593E-2,-1.8856713E-1,-1.5585813E-1,4.1351864E-1,-1.795812E-1,1.714517E-1,8.6316295E-2,-1.2742722E-1,2.6367428E0,1.05652906E-1,-5.5215365E-1,-3.8301936E-1,-1.0934242E0,3.6008924E-1,-1.1240967E-1,3.0356896E-1,2.2968285E-1,9.8076665E-1,1.1216164E-2,-1.8581852E-1,4.2598184E-2,2.4720617E-1,1.8282863E-1,-1.4867333E-1,-1.870425E-1,2.0423919E-2,-8.5096724E-2,2.1340977E-1,5.7879258E-2,-1.7171508E-1,-1.3768381E-1,9.001323E-2,-1.3739982E-1,1.5459824E-1,-1.4329147E-1,2.4277238E-2],"split_indices":[143,144,8,145,212,259,118,127,39,353,357,99,276,3,0,39,284,0,260,23,0,0,78,118,218,199,210,0,0,216,51,0,0,0,0,0,0,0,0,314,0,220,143,368,1,0,0,0,213,0,0,0,0,0,0,0,0,0,0,0,0,0,0,0,0,0,0],"split_type":[0,0,0,0,0,0,0,0,0,0,0,0,0,0,0,0,0,0,0,0,0,0,0,0,0,0,0,0,0,0,0,0,0,0,0,0,0,0,0,0,0,0,0,0,0,0,0,0,0,0,0,0,0,0,0,0,0,0,0,0,0,0,0,0,0,0,0],"sum_hessian":[4.2281366E2,1.6350436E2,2.593093E2,1.3301906E2,3.0485296E1,2.375796E2,2.1729692E1,2.740667E1,1.056124E2,6.6097016E0,2.3875593E1,1.5842007E2,7.915954E1,2.2877507E0,1.944194E1,1.2426259E1,1.498041E1,9.384693E1,1.1765463E1,3.239617E0,3.3700845E0,2.3362646E0,2.153933E1,3.7494083E1,1.2092599E2,3.9353044E0,7.5224236E1,1.0326735E0,1.2550772E0,5.694474E0,6.731785E0,1.0094905E0,1.397092E1,3.795875E0,9.0051056E1,9.828942E0,1.936521E0,1.2393701E0,2.000247E0,2.024567E1,1.2936592E0,7.209929E0,3.0284153E1,9.675769E1,2.4168297E1,1.1773452E0,2.7579591E0,1.949338E0,7.3274895E1,1.0094628E0,4.6850114E0,1.3815286E0,5.3502564E0,8.725792E1,2.7931347E0,1.9177038E1,1.0686321E0,2.8888838E0,4.321045E0,3.5104725E0,2.677368E1,9.357435E0,8.740026E1,2.0155684E1,4.0126133E0,6.0736538E1,1.2538357E1],"tree_param":{"num_deleted":"0","num_feature":"384","num_nodes":"67","size_leaf_vector":"1"}},{"base_weights":[7.5374625E-4,-3.3314887E-2,3.7682194E-1,6.3926443E-3,-3.837774E-1,6.2997445E-2,6.1517704E-1,-3.439662E-2,3.9653426E-1,-5.392775E-1,2.9491287E-1,-1.5928967E-1,3.496756E-1,-3.4863833E-2,6.855722E-1,1.1113488E-1,-1.3528194E-1,6.554997E-1,-5.5757076E-2,2.2940578E-1,-1.8448903E-1,2.0092021E-1,-1.4931537E-1,-2.77502E-1,5.641652E-1,2.1538663E-1,3.702199E-2,5.891443E-1,4.4180874E-2,-1.7311391E-1,4.0394327E-1,2.077995E-2,2.5836822E-1,-4.040196E-1,2.1720621E-1,1.7985335E-1,-1.0275947E-1,-1.1933259E-1,2.2169389E-3,-1.6889678E-2,1.9758402E-1,-1.0629758E-1,2.1039683E-1,-2.1692882E-3,2.5649455E-1,-8.851659E-2,7.832523E-3,1.8107054E-1,-1.2475568E-1,-1.4664209E-1,1.7158815E-1,-1.6751903E-1,9.250539E-2],"categories":[],"categories_nodes":[],"categories_segments":[],"categories_sizes":[],"default_left":[0,0,0,0,0,0,0,0,0,0,0,0,0,0,0,0,0,0,0,0,0,0,0,0,0,0,0,0,0,0,0,0,0,0,0,0,0,0,0,0,0,0,0,0,0,0,0,0,0,0,0,0,0],"id":12,"left_children":[1,3,5,7,9,11,13,15,17,19,21,-1,23,-1,25,27,29,31,33,35,-1,-1,-1,37,39,-1,-1,41,43,45,47,49,-1,51,-1,-1,-1,-1,-1,-1,-1,-1,-1,-1,-1,-1,-1,-1,-1,-1,-1,-1,-1],"loss_changes":[5.150381E0,5.132182E0,2.4590187E0,5.2983828E0,4.1199107E0,2.8297381E0,1.0509019E0,4.442779E0,3.7276459E0,1.9381113E0,2.6038952E0,0E0,1.646553E0,0E0,2.2729778E-1,3.943098E0,3.7125304E0,2.609089E0,3.6587322E0,9.455899E-1,0E0,0E0,0E0,1.2262419E-1,5.400703E-1,0E0,0E0,1.8525233E0,4.5857363E0,4.078143E0,2.2158604E0,1.9505718E0,0E0,1.1850903E0,0E0,0E0,0E0,0E0,0E0,0E0,0E0,0E0,0E0,0E0,0E0,0E0,0E0,0E0,0E0,0E0,0E0,0E0,0E0],"parents":[2147483647,0,0,1,1,2,2,3,3,4,4,5,5,6,6,7,7,8,8,9,9,10,10,12,12,14,14,15,15,16,16,17,17,18,18,19,19,23,23,24,24,27,27,28,28,29,29,30,30,31,31,33,33],"right_children":[2,4,6,8,10,12,14,16,18,20,22,-1,24,-1,26,28,30,32,34,36,-1,-1,-1,38,40,-1,-1,42,44,46,48,50,-1,52,-1,-1,-1,-1,-1,-1,-1,-1,-1,-1,-1,-1,-1,-1,-1,-1,-1,-1,-1],"split_conditions":[3.195987E-1,2.769001E-1,1.7621292E-1,1.3611774E0,2.0363414E0,-1.168705E-1,-4.0911514E-1,-4.2805982E-1,-1.9178632E-1,-1.3230648E0,3.8232386E-1,-1.5928967E-1,-1.166201E0,-3.4863833E-2,1.1303661E0,-9.9001694E-1,2.8337756E-1,-4.4594845E-1,-6.293805E-2,6.4026105E-1,-1.8448903E-1,2.0092021E-1,-1.4931537E-1,5.080602E-1,-1.2861181E0,2.1538663E-1,3.702199E-2,-1.2135057E0,1.3287857E0,3.509959E-1,1.6451876E0,-1.6272856E-1,2.5836822E-1,9.3055075E-1,2.1720621E-1,1.7985335E-1,-1.0275947E-1,-1.1933259E-1,2.2169389E-3,-1.6889678E-2,1.9758402E-1,-1.0629758E-1,2.1039683E-1,-2.1692882E-3,2.5649455E-1,-8.851659E-2,7.832523E-3,1.8107054E-1,-1.2475568E-1,-1.4664209E-1,1.7158815E-1,-1.6751903E-1,9.250539E-2],"split_indices":[12,88,1,279,151,36,115,145,239,350,0,0,230,0,202,252,111,322,132,10,0,0,0,54,314,0,0,222,266,296,340,39,0,268,0,0,0,0,0,0,0,0,0,0,0,0,0,0,0,0,0,0,0],"split_type":[0,0,0,0,0,0,0,0,0,0,0,0,0,0,0,0,0,0,0,0,0,0,0,0,0,0,0,0,0,0,0,0,0,0,0,0,0,0,0,0,0,0,0,0,0,0,0,0,0,0,0,0,0],"sum_hessian":[4.000128E2,3.6762082E2,3.239196E1,3.3108997E2,3.6530853E1,1.4528137E1,1.7863823E1,3.0057657E2,3.0513412E1,2.9888319E1,6.6425343E0,4.4519973E0,1.0076139E1,1.5112655E0,1.6352556E1,1.2301722E2,1.7755934E2,1.911791E1,1.1395502E1,2.4970171E0,2.7391302E1,4.615157E0,2.0273771E0,2.4929268E0,7.583213E0,1.5199855E1,1.1527022E0,1.4155639E1,1.0886159E2,1.6655296E2,1.1006377E1,4.949256E0,1.41686535E1,8.210449E0,3.185053E0,1.4867303E0,1.0102868E0,1.4742901E0,1.0186367E0,1.0551925E0,6.5280204E0,1.2748672E0,1.2880772E1,1.0330239E2,5.55919E0,1.0301672E2,6.353624E1,9.063192E0,1.9431845E0,2.630461E0,2.318795E0,6.9257255E0,1.2847234E0],"tree_param":{"num_deleted":"0","num_feature":"384","num_nodes":"53","size_leaf_vector":"1"}},{"base_weights":[5.6150574E-3,-4.6468467E-2,2.1582137E-1,3.179884E-1,-8.649633E-2,4.3448332E-1,-9.942852E-2,-3.8507548E-1,4.407356E-1,2.4259423E-1,-1.4239578E-1,-2.0403796E-1,5.585321E-1,4.125669E-1,-3.01762E-1,-7.781208E-4,-1.4150582E-1,5.5007607E-1,-3.5136724E-1,5.6194735E-1,-8.7346405E-2,-2.210525E-1,9.467627E-2,1.6627091E-1,-1.7146966E-1,-2.5707915E-1,6.537942E-1,6.8045634E-1,-3.276533E-1,4.5093492E-1,-4.3311042E-1,7.545996E-1,1.7189592E-1,-1.420719E-1,1.1491366E-3,7.1014416E-1,-1.4393348E-1,4.0189096E-1,-3.8332534E-1,5.2706704E-2,-3.0581334E-1,6.3730115E-1,-6.1052E-2,-1.5222205E-1,8.579865E-2,-1.2339313E-1,7.160764E-1,2.1611694E-2,2.2819166E-1,-6.172018E-3,-1.3931195E-1,-1.4285583E-2,2.0067085E-1,3.3946058E-1,-5.641578E-1,2.4312936E-1,-1.0725944E-2,1.6876449E-1,-1.468088E-1,2.330725E-1,-3.90931E-2,-1.2454102E-1,2.0351401E-1,-1.7121907E-1,4.4547677E-2,-4.492936E-2,1.6538411E-1,-1.1219111E-1,3.1548273E-2,2.3694877E-1,-1.2057809E-1,4.4252187E-2,-1.1768734E-1,2.3440762E-1,-1.2778799E-1,1.9155066E-1,-3.7967503E-2,6.639213E-2,-1.907945E-1],"categories":[],"categories_nodes":[],"categories_segments":[],"categories_sizes":[],"default_left":[0,0,0,0,0,0,0,0,0,0,0,0,0,0,0,0,0,0,0,0,0,0,0,0,0,0,0,0,0,0,0,0,0,0,0,0,0,0,0,0,0,0,0,0,0,0,0,0,0,0,0,0,0,0,0,0,0,0,0,0,0,0,0,0,0,0,0,0,0,0,0,0,0,0,0,0,0,0,0],"id":13,"left_children":[1,3,5,7,9,11,13,15,17,19,21,23,25,27,29,-1,-1,31,33,35,37,39,41,-1,-1,43,45,47,49,51,53,55,57,-1,-1,59,-1,61,63,65,67,69,71,-1,-1,-1,73,-1,-1,-1,-1,-1,-1,75,77,-1,-1,-1,-1,-1,-1,-1,-1,-1,-1,-1,-1,-1,-1,-1,-1,-1,-1,-1,-1,-1,-1,-1,-1],"loss_changes":[4.481475E0,4.8145237E0,5.64589E0,2.9905274E0,5.488062E0,3.929923E0,3.6571062E0,1.7740226E-1,2.643814E0,4.62349E0,4.75805E0,2.7049644E0,3.323122E0,2.2220716E0,2.668837E0,0E0,0E0,1.8234553E0,1.7727318E-1,3.767242E0,3.371369E0,4.449252E0,5.4460196E0,0E0,0E0,8.200358E-1,2.7252913E0,3.2218385E-1,1.3125879E-1,4.8904073E-1,2.3998284E0,7.391434E-1,2.899392E0,0E0,0E0,1.2141876E0,0E0,2.2838044E0,1.5154669E0,4.728211E0,4.129714E0,2.5930939E0,3.5556488E0,0E0,0E0,0E0,2.9409847E0,0E0,0E0,0E0,0E0,0E0,0E0,6.086464E-1,1.2140093E0,0E0,0E0,0E0,0E0,0E0,0E0,0E0,0E0,0E0,0E0,0E0,0E0,0E0,0E0,0E0,0E0,0E0,0E0,0E0,0E0,0E0,0E0,0E0,0E0],"parents":[2147483647,0,0,1,1,2,2,3,3,4,4,5,5,6,6,7,7,8,8,9,9,10,10,11,11,12,12,13,13,14,14,17,17,18,18,19,19,20,20,21,21,22,22,25,25,26,26,27,27,28,28,29,29,30,30,31,31,32,32,35,35,37,37,38,38,39,39,40,40,41,41,42,42,46,46,53,53,54,54],"right_children":[2,4,6,8,10,12,14,16,18,20,22,24,26,28,30,-1,-1,32,34,36,38,40,42,-1,-1,44,46,48,50,52,54,56,58,-1,-1,60,-1,62,64,66,68,70,72,-1,-1,-1,74,-1,-1,-1,-1,-1,-1,76,78,-1,-1,-1,-1,-1,-1,-1,-1,-1,-1,-1,-1,-1,-1,-1,-1,-1,-1,-1,-1,-1,-1,-1,-1],"split_conditions":[8.9936984E-1,-3.6627945E-1,-1.12536006E-1,-1.2763499E0,-1.132233E0,-2.810417E-1,-1.0293976E0,-8.3356595E-1,1.7327682E0,-7.2867885E-2,6.664519E-1,-1.6071415E-1,-9.6087223E-1,2.4259204E-2,-1.3271688E0,-7.781208E-4,-1.4150582E-1,1.119416E-1,2.1862055E-1,8.4513116E-1,-7.968868E-1,-7.709036E-1,-6.530856E-1,1.6627091E-1,-1.7146966E-1,2.3506697E-2,-8.423073E-1,-6.3198066E-1,-1.2533922E-1,-1.9918264E-1,-1.0762769E0,1.3545833E0,2.0954877E-2,-1.420719E-1,1.1491366E-3,1.3641536E0,-1.4393348E-1,-8.226517E-1,7.462761E-1,2.9902443E-1,7.05498E-1,1.7516837E0,-1.4527528E-1,-1.5222205E-1,8.579865E-2,-1.2339313E-1,3.9581704E-1,2.1611694E-2,2.2819166E-1,-6.172018E-3,-1.3931195E-1,-1.4285583E-2,2.0067085E-1,3.9608132E-2,-1.9768408E-1,2.4312936E-1,-1.0725944E-2,1.6876449E-1,-1.468088E-1,2.330725E-1,-3.90931E-2,-1.2454102E-1,2.0351401E-1,-1.7121907E-1,4.4547677E-2,-4.492936E-2,1.6538411E-1,-1.1219111E-1,3.1548273E-2,2.3694877E-1,-1.2057809E-1,4.4252187E-2,-1.1768734E-1,2.3440762E-1,-1.2778799E-1,1.9155066E-1,-3.7967503E-2,6.639213E-2,-1.907945E-1],"split_indices":[144,63,147,11,144,121,333,44,245,145,203,103,173,40,326,0,0,140,150,146,314,285,49,0,0,7,171,9,12,0,174,300,234,0,0,368,0,47,347,147,98,175,158,0,0,0,82,0,0,0,0,0,0,0,39,0,0,0,0,0,0,0,0,0,0,0,0,0,0,0,0,0,0,0,0,0,0,0,0],"split_type":[0,0,0,0,0,0,0,0,0,0,0,0,0,0,0,0,0,0,0,0,0,0,0,0,0,0,0,0,0,0,0,0,0,0,0,0,0,0,0,0,0,0,0,0,0,0,0,0,0,0,0,0,0,0,0,0,0,0,0,0,0,0,0,0,0,0,0,0,0,0,0,0,0,0,0,0,0,0,0],"sum_hessian":[4.074152E2,3.2713803E2,8.027715E1,3.1686432E1,2.954516E2,4.717657E1,3.310058E1,4.3921585E0,2.7294273E1,4.241379E1,2.5303781E2,7.5694146E0,3.9607155E1,9.081422E0,2.4019157E1,1.0011069E0,3.3910518E0,2.4252106E1,3.042167E0,2.119538E1,2.1218412E1,1.9004987E2,6.298794E1,2.3052545E0,5.26416E0,3.9645934E0,3.5642563E1,6.727458E0,2.3539634E0,3.2071786E0,2.0811977E1,1.5093855E1,9.158251E0,2.0154762E0,1.0266906E0,1.8834295E1,2.3610835E0,7.8631725E0,1.335524E1,4.502075E1,1.4502911E2,1.3356322E1,4.963162E1,2.7586734E0,1.20592E0,1.6594734E0,3.398309E1,1.0044233E0,5.723035E0,1.0796013E0,1.2743621E0,1.2133777E0,1.9938008E0,2.7876167E0,1.802436E1,1.4074228E1,1.0196266E0,5.8509536E0,3.3072968E0,1.7518282E1,1.3160121E0,1.8613647E0,6.0018077E0,9.821216E0,3.534024E0,3.2515705E1,1.2505044E1,1.2447578E2,2.0553343E1,1.1856172E1,1.5001514E0,3.079606E1,1.8835556E1,3.2444294E1,1.5387964E0,1.4725618E0,1.3150549E0,1.3357182E0,1.6688643E1],"tree_param":{"num_deleted":"0","num_feature":"384","num_nodes":"79","size_leaf_vector":"1"}},{"base_weights":[-6.498733E-3,-1.3498315E-1,1.3147926E-1,-4.1190773E-1,-4.49248E-2,2.2380821E-1,-2.7730155E-1,4.0309015E-1,-4.9656478E-1,3.076986E-2,-5.083877E-1,-2.129241E-2,3.5355446E-1,-4.2571017E-1,4.5268625E-1,2.2487251E-1,-1.0399791E-1,-5.477759E-1,9.311736E-2,3.7908608E-1,-6.720881E-2,-1.7329237E-1,1.073972E-1,2.9355195E-1,-2.6642334E-1,6.0656574E-2,4.9604625E-1,-5.27789E-1,4.0017667E-1,-1.13280125E-1,2.2478506E-1,3.6647283E-2,-5.802599E-1,1.5951353E-1,-1.18551075E-1,5.8193636E-1,-2.978206E-1,4.4099355E-1,-1.4701514E-1,5.3548557E-1,-1.7509097E-1,4.1279384E-1,-4.139251E-1,-4.1616508E-1,2.6585963E-1,5.685183E-1,-3.1061283E-1,8.686322E-2,-6.02488E-1,1.629792E-1,-1.5447651E-3,1.08011E-1,-9.296851E-2,-3.8805455E-2,-1.8566827E-1,-1.2930848E-1,2.0612359E-1,1.7802322E-1,-1.7776008E-1,2.0848756E-1,-3.629714E-2,-7.4552394E-2,7.597328E-2,-7.1289755E-2,2.0262818E-1,-1.5940133E-1,1.5221035E-1,-7.091996E-2,2.2586729E-1,1.6159995E-1,-1.6208123E-1,-1.8730839E-1,1.3366537E-1,2.0583412E-1,-5.1241565E-2,-7.850766E-2,1.9054694E-1,9.668725E-2,-1.5379383E-1,1.5009038E-1,-1.08347274E-1,1.6468203E-2,-1.8978411E-1],"categories":[],"categories_nodes":[],"categories_segments":[],"categories_sizes":[],"default_left":[0,0,0,0,0,0,0,0,0,0,0,0,0,0,0,0,0,0,0,0,0,0,0,0,0,0,0,0,0,0,0,0,0,0,0,0,0,0,0,0,0,0,0,0,0,0,0,0,0,0,0,0,0,0,0,0,0,0,0,0,0,0,0,0,0,0,0,0,0,0,0,0,0,0,0,0,0,0,0,0,0,0,0],"id":14,"left_children":[1,3,5,7,9,11,13,15,17,19,21,23,25,27,29,-1,-1,31,33,35,37,-1,-1,39,41,43,45,47,49,-1,-1,51,53,-1,-1,55,57,59,61,63,65,67,69,71,73,75,77,79,81,-1,-1,-1,-1,-1,-1,-1,-1,-1,-1,-1,-1,-1,-1,-1,-1,-1,-1,-1,-1,-1,-1,-1,-1,-1,-1,-1,-1,-1,-1,-1,-1,-1,-1],"loss_changes":[7.0981627E0,5.151521E0,7.3496237E0,3.7016964E0,5.542881E0,5.034122E0,4.095293E0,1.6438171E0,1.452898E0,4.679684E0,1.5373845E0,4.373502E0,4.285796E0,2.7784762E0,1.9010689E0,0E0,0E0,8.3490944E-1,1.1875792E0,4.305057E0,4.416126E0,0E0,0E0,2.9099736E0,3.3583431E0,3.5335453E0,4.2353325E0,1.3164973E0,2.3006183E-1,0E0,0E0,4.6989653E-1,6.282873E-1,0E0,0E0,2.7980537E0,2.347706E0,2.1980073E0,3.8602133E0,1.9595218E0,2.508881E0,1.5418369E0,3.4971228E0,2.2364397E0,4.717355E0,3.7101097E0,9.7973764E-1,8.9521587E-1,5.2340984E-1,0E0,0E0,0E0,0E0,0E0,0E0,0E0,0E0,0E0,0E0,0E0,0E0,0E0,0E0,0E0,0E0,0E0,0E0,0E0,0E0,0E0,0E0,0E0,0E0,0E0,0E0,0E0,0E0,0E0,0E0,0E0,0E0,0E0,0E0],"parents":[2147483647,0,0,1,1,2,2,3,3,4,4,5,5,6,6,7,7,8,8,9,9,10,10,11,11,12,12,13,13,14,14,17,17,18,18,19,19,20,20,23,23,24,24,25,25,26,26,27,27,28,28,31,31,32,32,35,35,36,36,37,37,38,38,39,39,40,40,41,41,42,42,43,43,44,44,45,45,46,46,47,47,48,48],"right_children":[2,4,6,8,10,12,14,16,18,20,22,24,26,28,30,-1,-1,32,34,36,38,-1,-1,40,42,44,46,48,50,-1,-1,52,54,-1,-1,56,58,60,62,64,66,68,70,72,74,76,78,80,82,-1,-1,-1,-1,-1,-1,-1,-1,-1,-1,-1,-1,-1,-1,-1,-1,-1,-1,-1,-1,-1,-1,-1,-1,-1,-1,-1,-1,-1,-1,-1,-1,-1,-1],"split_conditions":[-8.579439E-2,-9.591268E-2,8.994074E-1,-1.1830856E0,4.08762E-1,-3.2879913E-1,1.1573157E0,9.182743E-2,1.410776E0,-3.763138E-2,2.498167E-1,-3.6401957E-1,9.539066E-3,2.895661E0,-5.898399E-1,2.2487251E-1,-1.0399791E-1,-1.253692E0,-7.4666077E-1,-1.9402112E-1,-1.6868018E-1,-1.7329237E-1,1.073972E-1,4.001177E-1,1.2782502E-1,-9.216171E-2,3.5134304E-1,-1.2262933E0,-5.441825E-2,-1.13280125E-1,2.2478506E-1,-1.1280022E-1,-1.0966643E0,1.5951353E-1,-1.18551075E-1,-1.0808562E0,-1.8270914E-1,4.5381078E-1,5.3685653E-1,3.3736084E-2,4.8395923E-1,-4.5574299E-1,-1.319498E0,1.223017E-1,-1.6110292E-1,-8.458786E-1,-1.0472064E0,9.697778E-1,-1.3548436E0,1.629792E-1,-1.5447651E-3,1.08011E-1,-9.296851E-2,-3.8805455E-2,-1.8566827E-1,-1.2930848E-1,2.0612359E-1,1.7802322E-1,-1.7776008E-1,2.0848756E-1,-3.629714E-2,-7.4552394E-2,7.597328E-2,-7.1289755E-2,2.0262818E-1,-1.5940133E-1,1.5221035E-1,-7.091996E-2,2.2586729E-1,1.6159995E-1,-1.6208123E-1,-1.8730839E-1,1.3366537E-1,2.0583412E-1,-5.1241565E-2,-7.850766E-2,1.9054694E-1,9.668725E-2,-1.5379383E-1,1.5009038E-1,-1.08347274E-1,1.6468203E-2,-1.8978411E-1],"split_indices":[137,3,147,250,3,240,260,144,258,1,18,162,145,339,207,0,0,295,166,241,22,0,0,292,88,99,8,118,20,0,0,30,276,0,0,349,67,286,141,91,156,370,143,103,55,138,278,54,249,0,0,0,0,0,0,0,0,0,0,0,0,0,0,0,0,0,0,0,0,0,0,0,0,0,0,0,0,0,0,0,0,0,0],"split_type":[0,0,0,0,0,0,0,0,0,0,0,0,0,0,0,0,0,0,0,0,0,0,0,0,0,0,0,0,0,0,0,0,0,0,0,0,0,0,0,0,0,0,0,0,0,0,0,0,0,0,0,0,0,0,0,0,0,0,0,0,0,0,0,0,0,0,0,0,0,0,0,0,0,0,0,0,0,0,0,0,0,0,0],"sum_hessian":[3.9839117E2,2.063038E2,1.9208736E2,4.975035E1,1.5655345E2,1.5706459E2,3.5022766E1,4.3275304E0,4.542282E1,1.3537677E2,2.117668E1,5.4654305E1,1.0241028E2,2.9451931E1,5.5708375E0,2.9598954E0,1.367635E0,4.1858658E1,3.5641644E0,2.9090471E1,1.062863E2,1.9917828E1,1.2588518E0,2.3838623E1,3.0815683E1,3.3982826E1,6.842745E1,2.6533373E1,2.918557E0,1.394369E0,4.1764684E0,2.1973681E0,3.966129E1,1.8307757E0,1.7333887E0,2.2490875E1,6.5995955E0,1.3811246E1,9.247506E1,1.5628098E1,8.2105255E0,5.177183E0,2.56385E1,9.91521E0,2.4067617E1,6.3057453E1,5.3700013E0,2.8575435E0,2.367583E1,1.9055496E0,1.0130074E0,1.116512E0,1.0808563E0,3.4731855E0,3.6188103E1,1.8234882E0,2.0667387E1,1.3881669E0,5.2114286E0,9.349512E0,4.4617333E0,7.4071945E1,1.8403112E1,2.288275E0,1.3339822E1,5.5400367E0,2.670489E0,1.884625E0,3.2925582E0,2.6201632E0,2.3018335E1,8.207637E0,1.7075732E0,1.1973167E1,1.209445E1,4.467843E0,5.858961E1,1.1553701E0,4.214631E0,1.4254405E0,1.4321028E0,1.001417E0,2.2674414E1],"tree_param":{"num_deleted":"0","num_feature":"384","num_nodes":"83","size_leaf_vector":"1"}},{"base_weights":[1.6723104E-3,-2.4007762E-2,4.1068786E-1,-7.000237E-2,2.3470104E-1,-1.324691E-1,5.32601E-1,-1.07204616E-1,3.1153482E-1,4.3501267E-1,-1.0042559E-1,6.412927E-1,-1.4411864E-1,-1.7855051E-1,1.108691E-1,-1.2601615E-2,5.757352E-1,6.9802606E-1,9.409007E-2,-4.2693013E-1,4.3404528E-1,7.007302E-2,7.6988924E-1,5.8448914E-2,-1.15626104E-1,-2.0035727E-1,5.8853346E-1,-6.43316E-3,5.7664335E-1,-1.576594E-1,3.4142452E-1,-3.8050883E-2,1.9669709E-1,-3.0157467E-2,7.515312E-1,2.963655E-1,-1.5736899E-1,-5.733056E-1,1.4452532E-1,6.5852624E-1,-6.6921495E-2,-1.168954E-1,1.7033418E-1,3.644152E-2,2.4315265E-1,-7.245071E-2,7.2724454E-2,2.2855598E-1,-2.6669031E-2,1.2372031E-1,-4.411546E-2,2.0546384E-1,-9.9081986E-2,1.8683505E-1,-4.6782874E-2,4.636257E-2,2.354533E-1,-3.3360668E-2,2.0017716E-1,-1.8707668E-2,-1.8425514E-1,2.1498106E-1,6.506499E-2],"categories":[],"categories_nodes":[],"categories_segments":[],"categories_sizes":[],"default_left":[0,0,0,0,0,0,0,0,0,0,0,0,0,0,0,0,0,0,0,0,0,0,0,0,0,0,0,0,0,0,0,0,0,0,0,0,0,0,0,0,0,0,0,0,0,0,0,0,0,0,0,0,0,0,0,0,0,0,0,0,0,0,0],"id":15,"left_children":[1,3,5,7,9,-1,11,13,15,17,19,21,23,25,27,29,31,33,35,37,39,41,43,-1,-1,45,47,49,51,-1,53,-1,-1,-1,55,57,-1,59,-1,61,-1,-1,-1,-1,-1,-1,-1,-1,-1,-1,-1,-1,-1,-1,-1,-1,-1,-1,-1,-1,-1,-1,-1],"loss_changes":[3.9740682E0,4.2533174E0,2.5575087E0,4.335433E0,3.6671662E0,0E0,1.5640521E0,4.3280525E0,2.3351538E0,2.9804544E0,3.850962E0,1.2258334E0,3.683296E-1,3.6144338E0,3.76693E0,2.573812E0,9.252944E-1,8.882551E-1,2.1514628E0,2.0776532E0,1.3951011E0,1.2054771E0,2.734604E-1,0E0,0E0,3.7748947E0,7.7594995E-1,3.3593893E0,1.5874653E0,0E0,1.2736368E0,0E0,0E0,0E0,2.3558426E-1,1.9878085E0,0E0,2.1487713E-1,0E0,1.284647E-2,0E0,0E0,0E0,0E0,0E0,0E0,0E0,0E0,0E0,0E0,0E0,0E0,0E0,0E0,0E0,0E0,0E0,0E0,0E0,0E0,0E0,0E0,0E0],"parents":[2147483647,0,0,1,1,2,2,3,3,4,4,6,6,7,7,8,8,9,9,10,10,11,11,12,12,13,13,14,14,15,15,16,16,17,17,18,18,19,19,20,20,21,21,22,22,25,25,26,26,27,27,28,28,30,30,34,34,35,35,37,37,39,39],"right_children":[2,4,6,8,10,-1,12,14,16,18,20,22,24,26,28,30,32,34,36,38,40,42,44,-1,-1,46,48,50,52,-1,54,-1,-1,-1,56,58,-1,60,-1,62,-1,-1,-1,-1,-1,-1,-1,-1,-1,-1,-1,-1,-1,-1,-1,-1,-1,-1,-1,-1,-1,-1,-1],"split_conditions":[1.8017787E0,1.2463872E0,-1.5059581E-1,5.3748244E-1,-2.0533352E-1,-1.324691E-1,1.9403232E0,6.7733836E-1,1.7621292E-1,-3.8796973E-1,-7.5409144E-2,-7.033735E-1,-2.0913959E-1,1.0762141E0,9.737871E-1,7.259843E-1,-1.5964231E0,-1.0424347E0,2.2232981E-1,8.1544596E-1,1.8313216E-1,3.974216E-2,-9.378675E-1,5.8448914E-2,-1.15626104E-1,1.3900046E0,7.831023E-1,5.2753747E-2,1.0861269E0,-1.576594E-1,2.6808783E-1,-3.8050883E-2,1.9669709E-1,-3.0157467E-2,-1.3485518E0,-4.1185353E-2,-1.5736899E-1,-5.4651845E-1,1.4452532E-1,6.167198E-1,-6.6921495E-2,-1.168954E-1,1.7033418E-1,3.644152E-2,2.4315265E-1,-7.245071E-2,7.2724454E-2,2.2855598E-1,-2.6669031E-2,1.2372031E-1,-4.411546E-2,2.0546384E-1,-9.9081986E-2,1.8683505E-1,-4.6782874E-2,4.636257E-2,2.354533E-1,-3.3360668E-2,2.0017716E-1,-1.8707668E-2,-1.8425514E-1,2.1498106E-1,6.506499E-2],"split_indices":[284,143,33,8,203,0,217,320,1,247,267,143,14,13,277,142,360,298,352,350,361,30,361,0,0,226,3,88,201,0,246,0,0,0,351,195,0,12,0,307,0,0,0,0,0,0,0,0,0,0,0,0,0,0,0,0,0,0,0,0,0,0,0],"split_type":[0,0,0,0,0,0,0,0,0,0,0,0,0,0,0,0,0,0,0,0,0,0,0,0,0,0,0,0,0,0,0,0,0,0,0,0,0,0,0,0,0,0,0,0,0,0,0,0,0,0,0,0,0,0,0,0,0,0,0,0,0,0,0],"sum_hessian":[3.764161E2,3.5506467E2,2.1351458E1,3.020874E2,5.2977264E1,2.343929E0,1.9007528E1,2.7590405E2,2.618334E1,3.2971508E1,2.0005756E1,1.6422216E1,2.5853112E0,2.0802649E2,6.787756E1,1.21856165E1,1.3997724E1,1.802116E1,1.4950345E1,1.2543953E1,7.4618034E0,3.3015964E0,1.3120621E1,1.1552123E0,1.430099E0,2.0299454E2,5.0319505E0,5.500987E1,1.2867695E1,4.7782383E0,7.4073777E0,1.3697342E0,1.2627989E1,1.0764601E0,1.69447E1,1.1659195E1,3.29115E0,1.1121516E1,1.4224368E0,5.5602083E0,1.9015949E0,1.8291489E0,1.4724474E0,1.0087185E0,1.2111902E1,1.8615083E2,1.6843704E1,3.9075785E0,1.124372E0,1.3340927E1,4.166894E1,1.17144575E1,1.1532365E0,4.5699906E0,2.837387E0,1.1936102E0,1.5751091E1,5.8885384E0,5.770657E0,1.0109444E0,1.0110572E1,4.3637743E0,1.1964341E0],"tree_param":{"num_deleted":"0","num_feature":"384","num_nodes":"63","size_leaf_vector":"1"}},{"base_weights":[5.674901E-3,-8.285741E-2,1.1942385E-1,-1.358844E-1,3.0967698E-1,4.5052654E-1,4.234122E-2,6.679625E-2,-2.3607884E-1,4.6893662E-1,-1.4723076E-1,-1.4413317E-1,5.6057775E-1,1.4586608E-1,-2.879116E-1,-7.699789E-2,4.9625278E-1,-1.1264003E-1,-4.2284134E-1,-2.7893952E-1,7.0305854E-1,6.243571E-1,-7.347373E-2,-8.251962E-2,2.8852242E-1,-4.042286E-1,4.800507E-1,2.2195035E-1,-2.93193E-1,7.7727914E-1,1.5615998E-1,-3.0245084E-1,1.037082E-1,3.591601E-1,-4.6646893E-1,-1.5561697E-1,1.1567081E-1,-3.7672963E-2,8.018826E-1,9.200214E-2,7.280419E-1,-4.56655E-1,1.6580309E-1,4.2003542E-1,-1.0005557E-1,2.2478837E-1,-4.8980066E-1,2.2930717E-1,-8.901132E-2,1.0475652E-1,-1.4236191E-1,-1.3284872E-1,7.163954E-2,-5.5907173E-3,2.6667342E-1,1.5591386E-1,-1.368488E-1,8.9002125E-2,-1.1823905E-1,-5.102048E-2,1.1186356E-1,2.0708295E-2,1.416251E-1,-1.5516803E-1,8.035295E-2,2.570134E-1,6.366504E-3,-1.2533896E-1,1.3262266E-1,2.33637E-1,-8.630049E-3,-1.6900004E-1,5.169102E-2,-1.0357834E-1,1.4467272E-1,1.4613086E-1,-1.4451572E-1,1.1575181E-1,-8.4481396E-2,-1.6734001E-1,1.4091675E-1],"categories":[],"categories_nodes":[],"categories_segments":[],"categories_sizes":[],"default_left":[0,0,0,0,0,0,0,0,0,0,0,0,0,0,0,0,0,0,0,0,0,0,0,0,0,0,0,0,0,0,0,0,0,0,0,0,0,0,0,0,0,0,0,0,0,0,0,0,0,0,0,0,0,0,0,0,0,0,0,0,0,0,0,0,0,0,0,0,0,0,0,0,0,0,0,0,0,0,0,0,0],"id":16,"left_children":[1,3,5,7,9,11,13,15,17,19,-1,-1,21,23,25,27,29,31,33,35,37,39,-1,41,43,45,47,49,51,53,55,57,59,61,63,-1,-1,-1,65,67,69,71,73,75,77,-1,79,-1,-1,-1,-1,-1,-1,-1,-1,-1,-1,-1,-1,-1,-1,-1,-1,-1,-1,-1,-1,-1,-1,-1,-1,-1,-1,-1,-1,-1,-1,-1,-1,-1,-1],"loss_changes":[3.8732982E0,4.5447927E0,4.2767277E0,3.900013E0,3.5509295E0,3.5152273E0,4.747633E0,3.9937735E0,2.9082618E0,4.0899005E0,0E0,0E0,1.6321535E0,3.4594572E0,3.1582751E0,3.2224722E0,1.4270964E0,3.257403E0,1.8958492E0,1.1588792E0,1.5108614E0,1.4212904E0,0E0,3.9146667E0,3.3703623E0,3.2652936E0,1.2916846E0,2.0330667E0,2.396861E0,7.824311E-1,2.147503E0,2.429433E0,2.8237622E0,7.362592E-2,1.9431286E0,0E0,0E0,0E0,6.461544E-1,1.1734097E0,8.8358784E-1,1.2209799E0,4.3016815E0,3.1892042E0,1.6326975E0,0E0,2.0849338E0,0E0,0E0,0E0,0E0,0E0,0E0,0E0,0E0,0E0,0E0,0E0,0E0,0E0,0E0,0E0,0E0,0E0,0E0,0E0,0E0,0E0,0E0,0E0,0E0,0E0,0E0,0E0,0E0,0E0,0E0,0E0,0E0,0E0,0E0],"parents":[2147483647,0,0,1,1,2,2,3,3,4,4,5,5,6,6,7,7,8,8,9,9,12,12,13,13,14,14,15,15,16,16,17,17,18,18,19,19,20,20,21,21,23,23,24,24,25,25,26,26,27,27,28,28,29,29,30,30,31,31,32,32,33,33,34,34,38,38,39,39,40,40,41,41,42,42,43,43,44,44,46,46],"right_children":[2,4,6,8,10,12,14,16,18,20,-1,-1,22,24,26,28,30,32,34,36,38,40,-1,42,44,46,48,50,52,54,56,58,60,62,64,-1,-1,-1,66,68,70,72,74,76,78,-1,80,-1,-1,-1,-1,-1,-1,-1,-1,-1,-1,-1,-1,-1,-1,-1,-1,-1,-1,-1,-1,-1,-1,-1,-1,-1,-1,-1,-1,-1,-1,-1,-1,-1,-1],"split_conditions":[-1.9016328E-1,1.7166592E0,-1.0073618E0,-6.1057234E-1,4.2770153E-1,-1.5405794E0,8.07914E-1,2.694596E-1,1.9270146E-2,-3.835521E-1,-1.4723076E-1,-1.4413317E-1,1.701255E0,-5.710136E-1,1.5372432E-2,-6.959103E-1,-8.5806847E-4,-2.9905288E-2,-1.6110522E0,4.0503252E-1,-1.4792196E-1,-2.1215983E-1,-7.347373E-2,-9.468801E-2,4.8908602E-2,-1.4835569E0,3.522869E-2,-1.2105243E-1,4.6093577E-1,-9.622E-1,3.190703E-1,-1.0868572E0,-6.421628E-2,-1.6761687E-1,2.5999656E0,-1.5561697E-1,1.1567081E-1,-3.7672963E-2,4.1901994E-1,-1.6827208E-1,4.1929302E-1,3.6678994E-1,-4.906363E-1,1.2055395E0,-7.5325346E-1,2.2478837E-1,1.5496293E-1,2.2930717E-1,-8.901132E-2,1.0475652E-1,-1.4236191E-1,-1.3284872E-1,7.163954E-2,-5.5907173E-3,2.6667342E-1,1.5591386E-1,-1.368488E-1,8.9002125E-2,-1.1823905E-1,-5.102048E-2,1.1186356E-1,2.0708295E-2,1.416251E-1,-1.5516803E-1,8.035295E-2,2.570134E-1,6.366504E-3,-1.2533896E-1,1.3262266E-1,2.33637E-1,-8.630049E-3,-1.6900004E-1,5.169102E-2,-1.0357834E-1,1.4467272E-1,1.4613086E-1,-1.4451572E-1,1.1575181E-1,-8.4481396E-2,-1.6734001E-1,1.4091675E-1],"split_indices":[48,200,313,284,141,362,174,256,120,208,0,0,162,297,108,177,119,25,366,340,108,102,0,210,33,341,146,154,348,233,348,331,345,0,241,0,0,0,114,85,264,252,138,284,173,0,62,0,0,0,0,0,0,0,0,0,0,0,0,0,0,0,0,0,0,0,0,0,0,0,0,0,0,0,0,0,0,0,0,0,0],"split_type":[0,0,0,0,0,0,0,0,0,0,0,0,0,0,0,0,0,0,0,0,0,0,0,0,0,0,0,0,0,0,0,0,0,0,0,0,0,0,0,0,0,0,0,0,0,0,0,0,0,0,0,0,0,0,0,0,0,0,0,0,0,0,0,0,0,0,0,0,0,0,0,0,0,0,0,0,0,0,0,0,0],"sum_hessian":[3.826373E2,2.153214E2,1.673159E2,1.9027165E2,2.5049742E1,3.0681421E1,1.3663448E2,6.305424E1,1.2721741E2,2.1238256E1,3.8114843E0,2.8876781E0,2.7793743E1,1.0445053E2,3.218395E1,4.7852566E1,1.5201677E1,7.75588E1,4.9658604E1,5.0178556E0,1.6220402E1,2.5962856E1,1.8308868E0,4.032068E1,6.412985E1,2.8361845E1,3.8221028E0,2.007157E1,2.7780994E1,7.6197853E0,7.581892E0,4.110116E1,3.645764E1,2.2418704E0,4.7416733E1,3.848528E0,1.1693275E0,1.6994969E0,1.4520905E1,4.5400295E0,2.1422827E1,1.5750792E1,2.4569887E1,4.7853146E1,1.6276705E1,1.4230216E0,2.6938824E1,2.8096726E0,1.0124302E0,1.7392815E1,2.6787543E0,2.1813108E1,5.967887E0,1.0397365E0,6.5800486E0,4.8522315E0,2.7296605E0,5.1579514E0,3.5943207E1,1.8256702E1,1.8200941E1,1.0795305E0,1.1623399E0,4.4627575E1,2.7891605E0,1.3476951E1,1.0439539E0,1.7695893E0,2.7704403E0,2.0049364E1,1.3734622E0,1.3555898E1,2.194894E0,9.360753E0,1.5209133E1,4.496847E1,2.884675E0,4.1212907E0,1.2155416E1,2.554703E1,1.391794E0],"tree_param":{"num_deleted":"0","num_feature":"384","num_nodes":"81","size_leaf_vector":"1"}},{"base_weights":[-7.5471736E-3,2.5514257E-1,-6.434772E-2,-3.1229377E-1,3.596607E-1,-3.557579E-2,-4.815731E-1,-4.8789182E-1,2.3454562E-1,-2.831065E-1,4.176667E-1,9.221162E-3,-3.5920933E-1,-1.6560225E-1,7.8917734E-2,-1.4282929E-2,-1.624812E-1,1.2581307E-1,-2.8790312E-2,1.0519417E-1,-1.613147E-1,-1.4246583E-1,4.518541E-1,-1.5598784E-1,1.0561162E-1,3.7480888E-1,-4.326948E-1,5.006146E-1,-2.7046502E-1,3.2283854E-1,-2.2887006E-1,1.9924809E-1,-1.5913859E-1,1.9494854E-1,-2.4335463E-2,2.7518737E-1,-5.266285E-1,1.6184127E-1,-6.1517105E-2,6.810321E-2,-1.5806067E-1,-9.836633E-2,1.7308381E-1,9.638018E-3,-1.0479173E-1,9.818763E-2,-1.1640309E-2,-1.19678885E-1,4.7591407E-2,2.1875885E-1,-1.0940419E-1,9.657103E-2,-1.7300245E-1],"categories":[],"categories_nodes":[],"categories_segments":[],"categories_sizes":[],"default_left":[0,0,0,0,0,0,0,0,0,0,0,0,0,0,0,0,0,0,0,0,0,0,0,0,0,0,0,0,0,0,0,0,0,0,0,0,0,0,0,0,0,0,0,0,0,0,0,0,0,0,0,0,0],"id":17,"left_children":[1,3,5,7,9,11,13,15,17,19,21,23,25,-1,-1,-1,-1,-1,-1,-1,-1,-1,27,29,31,33,35,37,39,41,43,45,47,-1,-1,49,51,-1,-1,-1,-1,-1,-1,-1,-1,-1,-1,-1,-1,-1,-1,-1,-1],"loss_changes":[5.568408E0,4.0476117E0,3.6650934E0,1.1568885E0,2.2247334E0,4.1791368E0,1.1788754E0,1.7622256E-1,2.4270141E-1,1.03933E0,1.8081865E0,4.0610805E0,2.052569E0,0E0,0E0,0E0,0E0,0E0,0E0,0E0,0E0,0E0,1.9250011E0,3.3538957E0,4.0228596E0,5.1980877E-1,2.2940884E0,1.4253693E0,6.1226773E-1,2.3108344E0,2.59371E0,3.6513944E0,3.3109207E0,0E0,0E0,1.5567174E0,1.4119616E0,0E0,0E0,0E0,0E0,0E0,0E0,0E0,0E0,0E0,0E0,0E0,0E0,0E0,0E0,0E0,0E0],"parents":[2147483647,0,0,1,1,2,2,3,3,4,4,5,5,6,6,7,7,8,8,9,9,10,10,11,11,12,12,22,22,23,23,24,24,25,25,26,26,27,27,28,28,29,29,30,30,31,31,32,32,35,35,36,36],"right_children":[2,4,6,8,10,12,14,16,18,20,22,24,26,-1,-1,-1,-1,-1,-1,-1,-1,-1,28,30,32,34,36,38,40,42,44,46,48,-1,-1,50,52,-1,-1,-1,-1,-1,-1,-1,-1,-1,-1,-1,-1,-1,-1,-1,-1],"split_conditions":[-8.6575544E-1,-8.074461E-1,9.7552997E-1,8.797765E-1,-3.645234E-1,2.4644463E-1,9.4392395E-1,-1.0897498E0,-1.8588652E-1,-1.9845345E0,-2.968827E-1,9.853933E-2,-4.850666E-2,-1.6560225E-1,7.8917734E-2,-1.4282929E-2,-1.624812E-1,1.2581307E-1,-2.8790312E-2,1.0519417E-1,-1.613147E-1,-1.4246583E-1,1.7578996E0,-1.3115991E0,6.648385E-1,1.2700758E-2,-1.0720897E0,1.0310923E0,-6.9250274E-1,-5.703364E-1,-4.7986385E-1,1.6687448E-1,-7.5217914E-3,1.9494854E-1,-2.4335463E-2,1.6064603E-2,-1.2816163E0,1.6184127E-1,-6.1517105E-2,6.810321E-2,-1.5806067E-1,-9.836633E-2,1.7308381E-1,9.638018E-3,-1.0479173E-1,9.818763E-2,-1.1640309E-2,-1.19678885E-1,4.7591407E-2,2.1875885E-1,-1.0940419E-1,9.657103E-2,-1.7300245E-1],"split_indices":[143,227,2,270,53,168,102,196,26,2,34,91,16,0,0,0,0,0,0,0,0,0,227,210,144,35,315,140,152,307,143,345,116,0,0,46,331,0,0,0,0,0,0,0,0,0,0,0,0,0,0,0,0],"split_type":[0,0,0,0,0,0,0,0,0,0,0,0,0,0,0,0,0,0,0,0,0,0,0,0,0,0,0,0,0,0,0,0,0,0,0,0,0,0,0,0,0,0,0,0,0,0,0,0,0,0,0,0,0],"sum_hessian":[3.710943E2,6.535416E1,3.0574014E2,9.856203E0,5.549795E1,2.8703168E2,1.8708487E1,7.542116E0,2.3140864E0,4.2725844E0,5.122537E1,2.5298528E2,3.40464E1,1.7328114E1,1.3803735E0,1.0251642E0,6.516952E0,1.3116912E0,1.0023953E0,1.1164365E0,3.1561477E0,1.4141656E0,4.9811203E1,9.298861E1,1.5999667E2,2.7251785E0,3.1321218E1,4.6948833E1,2.8623667E0,1.1830992E1,8.1157616E1,1.1837676E2,4.1619904E1,1.4345524E0,1.290626E0,3.4432652E0,2.7877953E1,4.4721844E1,2.2269917E0,1.0125158E0,1.8498509E0,3.2409964E0,8.589995E0,2.5856691E1,5.5300922E1,7.672977E1,4.164699E1,2.357504E1,1.8044865E1,1.932491E0,1.5107741E0,1.2501204E0,2.6627832E1],"tree_param":{"num_deleted":"0","num_feature":"384","num_nodes":"53","size_leaf_vector":"1"}},{"base_weights":[2.995401E-3,7.343256E-2,-1.2898973E-1,1.6952515E-1,-9.700363E-2,-2.999535E-1,8.254431E-2,1.0091438E-1,4.2673466E-1,4.2154223E-1,-1.788666E-1,-5.5259717E-1,-1.4914376E-1,-2.6657745E-1,2.941978E-1,3.5741073E-3,3.9833233E-1,4.9434507E-1,-2.2170343E-1,-1.1099369E-1,5.845058E-1,-3.1195825E-1,1.6622324E-1,1.05454944E-1,-1.830264E-1,-3.0112362E-1,3.150507E-1,-4.9240616E-1,2.7644214E-1,3.6958015E-1,-1.3749324E-1,-6.262527E-2,4.770687E-1,7.3635423E-1,1.5668863E-1,-8.005022E-2,5.7905513E-1,-1.1130091E-1,2.5081782E-2,-7.0267012E-3,2.1545333E-1,-4.30456E-1,1.4514565E-1,5.9170526E-1,-4.3636985E-2,-4.1612265E-1,2.4141699E-1,5.327931E-1,-1.2870824E-1,-1.7543602E-1,7.377737E-2,1.8683165E-1,-9.09143E-2,-2.3039067E-1,4.5198968E-1,-3.948056E-2,1.4239055E-1,-5.443661E-2,1.8783978E-1,2.3949234E-1,3.6696903E-2,1.4535622E-1,-6.533438E-2,-1.3080516E-1,1.19021155E-1,1.9911776E-1,-5.7224757E-3,9.0710185E-2,-1.4845558E-1,-1.408884E-1,1.5623988E-1,1.9157447E-1,4.81812E-2,9.9936806E-2,-1.0425533E-1,1.298566E-1,-1.4153744E-1,-1.2550788E-1,1.7898189E-1,-3.0418811E-2,2.0665005E-1,8.524096E-2,-1.3628127E-1,-3.323755E-3,1.7270206E-1],"categories":[],"categories_nodes":[],"categories_segments":[],"categories_sizes":[],"default_left":[0,0,0,0,0,0,0,0,0,0,0,0,0,0,0,0,0,0,0,0,0,0,0,0,0,0,0,0,0,0,0,0,0,0,0,0,0,0,0,0,0,0,0,0,0,0,0,0,0,0,0,0,0,0,0,0,0,0,0,0,0,0,0,0,0,0,0,0,0,0,0,0,0,0,0,0,0,0,0,0,0,0,0,0,0],"id":18,"left_children":[1,3,5,7,9,11,13,15,17,19,21,23,25,27,29,31,33,35,37,-1,39,41,43,-1,-1,45,47,49,51,53,-1,55,57,59,61,63,65,-1,-1,-1,-1,67,69,71,73,75,77,79,-1,-1,-1,-1,-1,81,83,-1,-1,-1,-1,-1,-1,-1,-1,-1,-1,-1,-1,-1,-1,-1,-1,-1,-1,-1,-1,-1,-1,-1,-1,-1,-1,-1,-1,-1,-1],"loss_changes":[3.309466E0,3.8174527E0,4.504861E0,2.5824108E0,3.654355E0,2.5361195E0,4.2278585E0,3.436637E0,1.4695067E0,1.7374561E0,3.4283965E0,1.530539E0,3.227636E0,2.7995234E0,2.1794987E0,2.866026E0,2.2757401E0,1.4282031E0,1.9599234E-1,0E0,8.430507E-1,2.955089E0,1.9111571E0,0E0,0E0,2.2195637E0,2.082302E0,1.2146187E0,1.5975778E0,1.7240281E0,0E0,3.0370283E0,1.2144637E0,3.5629797E-1,2.3571057E0,9.4157475E-1,1.2722397E0,0E0,0E0,0E0,0E0,2.1628394E0,2.9562504E0,3.9768696E-2,1.8412879E0,1.5460463E0,1.7899514E0,9.899025E-1,0E0,0E0,0E0,0E0,0E0,6.611539E-1,1.6755538E0,0E0,0E0,0E0,0E0,0E0,0E0,0E0,0E0,0E0,0E0,0E0,0E0,0E0,0E0,0E0,0E0,0E0,0E0,0E0,0E0,0E0,0E0,0E0,0E0,0E0,0E0,0E0,0E0,0E0,0E0],"parents":[2147483647,0,0,1,1,2,2,3,3,4,4,5,5,6,6,7,7,8,8,9,9,10,10,11,11,12,12,13,13,14,14,15,15,16,16,17,17,18,18,20,20,21,21,22,22,25,25,26,26,27,27,28,28,29,29,31,31,32,32,33,33,34,34,35,35,36,36,41,41,42,42,43,43,44,44,45,45,46,46,47,47,53,53,54,54],"right_children":[2,4,6,8,10,12,14,16,18,20,22,24,26,28,30,32,34,36,38,-1,40,42,44,-1,-1,46,48,50,52,54,-1,56,58,60,62,64,66,-1,-1,-1,-1,68,70,72,74,76,78,80,-1,-1,-1,-1,-1,82,84,-1,-1,-1,-1,-1,-1,-1,-1,-1,-1,-1,-1,-1,-1,-1,-1,-1,-1,-1,-1,-1,-1,-1,-1,-1,-1,-1,-1,-1,-1],"split_conditions":[2.7692395E-1,-8.415127E-2,9.901722E-2,5.6569636E-2,-7.5838894E-1,-4.3169387E-2,-2.5689176E-1,3.7929955E-1,5.405018E-1,-1.7751248E-1,1.2157478E-1,-1.3943933E0,3.6624265E-1,2.2062017E-2,1.7597252E0,1.2969416E0,-5.052716E-2,-9.0306264E-1,-1.3296266E-2,-1.1099369E-1,-5.690033E-1,-1.3846554E-1,-5.874142E-1,1.05454944E-1,-1.830264E-1,8.674572E-1,9.4010925E-1,4.0054806E-2,2.7887017E-1,-7.8468394E-1,-1.3749324E-1,2.1115072E0,-2.5308272E-1,6.343437E-1,-1.2021291E-1,2.938487E-1,1.4604275E0,-1.1130091E-1,2.5081782E-2,-7.0267012E-3,2.1545333E-1,-1.3035369E0,-1.2745056E-1,1.1564204E0,-3.999477E-1,-5.435991E-1,1.5693365E-1,-7.345549E-2,-1.2870824E-1,-1.7543602E-1,7.377737E-2,1.8683165E-1,-9.09143E-2,-2.042581E-1,-1.2188047E-1,-3.948056E-2,1.4239055E-1,-5.443661E-2,1.8783978E-1,2.3949234E-1,3.6696903E-2,1.4535622E-1,-6.533438E-2,-1.3080516E-1,1.19021155E-1,1.9911776E-1,-5.7224757E-3,9.0710185E-2,-1.4845558E-1,-1.408884E-1,1.5623988E-1,1.9157447E-1,4.81812E-2,9.9936806E-2,-1.0425533E-1,1.298566E-1,-1.4153744E-1,-1.2550788E-1,1.7898189E-1,-3.0418811E-2,2.0665005E-1,8.524096E-2,-1.3628127E-1,-3.323755E-3,1.7270206E-1],"split_indices":[207,137,300,67,138,121,307,315,208,60,52,252,303,16,364,188,20,185,16,0,246,159,248,0,0,284,144,40,195,50,0,151,58,231,62,195,47,0,0,0,0,345,359,141,303,93,334,127,0,0,0,0,0,46,122,0,0,0,0,0,0,0,0,0,0,0,0,0,0,0,0,0,0,0,0,0,0,0,0,0,0,0,0,0,0],"split_type":[0,0,0,0,0,0,0,0,0,0,0,0,0,0,0,0,0,0,0,0,0,0,0,0,0,0,0,0,0,0,0,0,0,0,0,0,0,0,0,0,0,0,0,0,0,0,0,0,0,0,0,0,0,0,0,0,0,0,0,0,0,0,0,0,0,0,0,0,0,0,0,0,0,0,0,0,0,0,0,0,0,0,0,0,0],"sum_hessian":[3.5396564E2,2.31085E2,1.22880646E2,1.477745E2,8.331049E1,6.772593E1,5.515472E1,1.1775551E2,3.0018995E1,1.0793253E1,7.251724E1,2.431989E1,4.340604E1,2.0719112E1,3.4435608E1,8.948159E1,2.8273918E1,2.7399755E1,2.6192408E0,1.6258944E0,9.167358E0,5.2402897E1,2.0114347E1,1.1482313E0,2.3171658E1,3.2964558E1,1.0441483E1,1.4699255E1,6.019857E0,3.1762661E1,2.6729472E0,7.9267E1,1.0214597E1,1.0933035E1,1.7340885E1,3.5285647E0,2.3871191E1,1.6145416E0,1.0046992E0,1.8010626E0,7.366296E0,4.166113E1,1.0741766E1,6.0429735E0,1.4071374E1,2.7391548E1,5.573009E0,8.297352E0,2.1441305E0,1.3249435E1,1.4498188E0,3.7212029E0,2.298654E0,3.619044E0,2.8143618E1,7.0917274E1,8.349718E0,1.8452922E0,8.369305E0,9.658424E0,1.2746099E0,9.08952E0,8.251364E0,2.069212E0,1.4593527E0,2.0814976E1,3.0562155E0,3.066702E0,3.859443E1,3.979304E0,6.762462E0,5.016247E0,1.0267267E0,6.239385E0,7.8319883E0,1.2686361E0,2.6122913E1,1.8880465E0,3.6849625E0,1.7075624E0,6.5897894E0,1.015667E0,2.603377E0,6.1244116E0,2.2019205E1],"tree_param":{"num_deleted":"0","num_feature":"384","num_nodes":"85","size_leaf_vector":"1"}},{"base_weights":[5.1035616E-3,-2.7678877E-1,3.6006406E-2,2.4513586E-1,-4.59033E-1,3.920897E-3,3.4779605E-1,-1.7926171E-1,5.694596E-1,-5.207517E-1,1.2580623E-1,3.157158E-2,-4.4274938E-1,4.5398074E-1,-3.64202E-1,1.1084279E-1,-1.3266295E-1,1.8929096E-1,5.0266113E-2,-1.6908017E-1,-9.7743265E-2,-7.578495E-2,1.4333804E-1,2.543283E-1,-1.7608573E-1,6.480587E-1,1.2264649E-1,-1.4302763E-1,3.7048927E-3,7.7389725E-2,-1.0225273E-1,1.7068692E-2,-3.2750008E-1,2.122146E-1,-1.8122654E-1,1.4638868E-1,-3.1532384E-2,-3.318062E-2,7.197877E-1,-1.3453406E-1,3.7967464E-1,-1.424219E-1,2.586578E-2,-1.3653986E-1,2.1175615E-2,7.758101E-2,-1.3456418E-1,-1.17818706E-1,1.3249531E-1,5.5736136E-2,2.3402996E-1,-1.09207176E-1,1.7520215E-1],"categories":[],"categories_nodes":[],"categories_segments":[],"categories_sizes":[],"default_left":[0,0,0,0,0,0,0,0,0,0,0,0,0,0,0,0,0,0,0,0,0,0,0,0,0,0,0,0,0,0,0,0,0,0,0,0,0,0,0,0,0,0,0,0,0,0,0,0,0,0,0,0,0],"id":19,"left_children":[1,3,5,7,9,11,13,15,17,19,-1,21,23,25,27,-1,-1,-1,-1,-1,29,31,33,35,-1,37,39,-1,-1,-1,-1,41,43,45,47,-1,-1,-1,49,-1,51,-1,-1,-1,-1,-1,-1,-1,-1,-1,-1,-1,-1],"loss_changes":[3.1435921E0,3.503854E0,3.2505805E0,1.4619055E0,1.6699085E0,3.6666782E0,2.4575698E0,8.906108E-1,3.863561E-2,4.0643692E-1,0E0,3.3638275E0,1.8890157E0,1.6457772E0,1.9617748E-1,0E0,0E0,0E0,0E0,0E0,3.9506304E-1,3.3522334E0,3.1067588E0,3.5900432E-1,0E0,9.876113E-1,1.8060226E0,0E0,0E0,0E0,0E0,3.630603E0,1.9951239E0,3.6007133E0,3.409955E0,0E0,0E0,0E0,3.503294E-1,0E0,1.4627113E0,0E0,0E0,0E0,0E0,0E0,0E0,0E0,0E0,0E0,0E0,0E0,0E0],"parents":[2147483647,0,0,1,1,2,2,3,3,4,4,5,5,6,6,7,7,8,8,9,9,11,11,12,12,13,13,14,14,20,20,21,21,22,22,23,23,25,25,26,26,31,31,32,32,33,33,34,34,38,38,40,40],"right_children":[2,4,6,8,10,12,14,16,18,20,-1,22,24,26,28,-1,-1,-1,-1,-1,30,32,34,36,-1,38,40,-1,-1,-1,-1,42,44,46,48,-1,-1,-1,50,-1,52,-1,-1,-1,-1,-1,-1,-1,-1,-1,-1,-1,-1],"split_conditions":[-1.3081292E0,-6.1020285E-1,1.39991E0,1.8239877E-1,2.8727813E0,1.6665286E0,2.417704E-1,-5.648563E0,7.303546E-1,3.410942E-1,1.2580623E-1,-1.9016328E-1,-7.061983E-3,1.582844E-2,-1.3016094E-1,1.1084279E-1,-1.3266295E-1,1.8929096E-1,5.0266113E-2,-1.6908017E-1,2.4235308E-2,4.2770153E-1,1.3989841E0,-1.3155304E-2,-1.7608573E-1,-8.917517E-1,-4.67464E-1,-1.4302763E-1,3.7048927E-3,7.7389725E-2,-1.0225273E-1,-2.625079E-1,8.818996E-1,1.2940375E0,1.3202785E-1,1.4638868E-1,-3.1532384E-2,-3.318062E-2,-1.0684694E0,-1.3453406E-1,2.1364456E-2,-1.424219E-1,2.586578E-2,-1.3653986E-1,2.1175615E-2,7.758101E-2,-1.3456418E-1,-1.17818706E-1,1.3249531E-1,5.5736136E-2,2.3402996E-1,-1.09207176E-1,1.7520215E-1],"split_indices":[139,10,349,89,26,317,58,1,257,58,0,48,4,120,30,0,0,0,0,0,12,141,167,56,0,350,252,0,0,0,0,110,139,375,13,0,0,0,221,0,142,0,0,0,0,0,0,0,0,0,0,0,0],"split_type":[0,0,0,0,0,0,0,0,0,0,0,0,0,0,0,0,0,0,0,0,0,0,0,0,0,0,0,0,0,0,0,0,0,0,0,0,0,0,0,0,0,0,0,0,0,0,0,0,0,0,0,0,0],"sum_hessian":[3.587207E2,3.4654E1,3.2406668E2,8.879405E0,2.5774595E1,2.9474753E2,2.931917E1,4.04004E0,4.839365E0,2.446289E1,1.3117032E0,2.7844028E2,1.6307251E1,2.5829449E1,3.489721E0,1.1775407E0,2.8624992E0,3.7027318E0,1.1366332E0,2.1911043E1,2.5518484E0,1.421862E2,1.3625407E2,2.664306E0,1.3642945E1,1.5685696E1,1.0143753E1,2.481767E0,1.007954E0,1.0111512E0,1.5406971E0,1.04551155E2,3.763504E1,1.1268673E2,2.3567347E1,1.3980169E0,1.266289E0,1.3081156E0,1.4377581E1,2.9172187E0,7.2265344E0,1.2165211E1,9.238595E1,2.8389572E1,9.245469E0,1.05863235E2,6.8234963E0,1.7869219E1,5.6981277E0,1.873159E0,1.2504421E1,1.3891153E0,5.837419E0],"tree_param":{"num_deleted":"0","num_feature":"384","num_nodes":"53","size_leaf_vector":"1"}},{"base_weights":[-8.2723005E-3,-1.13551445E-1,1.0744938E-1,-4.4623485E-1,-5.4314647E-2,1.8123956E-1,-2.3524426E-1,-5.5939263E-1,6.410695E-2,-3.4211925E-1,1.8327473E-2,-3.8951916E-1,2.2499098E-1,-3.7422344E-1,4.032595E-1,-1.767346E-1,9.704236E-3,1.8077278E-1,-1.3982022E-1,-4.3033913E-1,2.871019E-1,7.5412355E-2,-4.7057414E-1,1.3096592E-1,-1.6580312E-1,-3.3780754E-2,3.6227328E-1,-4.7711375E-1,3.559518E-1,-9.449426E-2,1.9063278E-1,-5.2321076E-1,4.717559E-2,-8.768248E-2,1.6449511E-1,1.6557063E-1,-2.6814872E-1,-1.6331753E-1,5.0205447E-2,1.9287634E-1,-2.9810295E-1,4.0472168E-1,-2.8085628E-1,1.2603872E-1,-5.530242E-1,3.479377E-2,1.327515E-1,-1.729127E-1,2.0049429E-2,-1.2681587E-1,1.791001E-1,-1.5746064E-2,9.501673E-2,-1.4096281E-1,7.787194E-2,2.0515586E-1,-1.0605329E-2,4.491711E-2,-1.4033571E-1,1.3340658E-1,-1.053153E-1,9.4834976E-2,-1.4335968E-1,1.3169014E-1,-8.6890444E-2,-1.7515919E-1,5.9227305E-3],"categories":[],"categories_nodes":[],"categories_segments":[],"categories_sizes":[],"default_left":[0,0,0,0,0,0,0,0,0,0,0,0,0,0,0,0,0,0,0,0,0,0,0,0,0,0,0,0,0,0,0,0,0,0,0,0,0,0,0,0,0,0,0,0,0,0,0,0,0,0,0,0,0,0,0,0,0,0,0,0,0,0,0,0,0,0,0],"id":20,"left_children":[1,3,5,7,9,11,13,15,17,19,21,23,25,27,29,-1,-1,-1,-1,31,33,35,37,-1,-1,39,41,43,45,-1,-1,47,49,-1,-1,51,53,-1,-1,55,57,59,61,63,65,-1,-1,-1,-1,-1,-1,-1,-1,-1,-1,-1,-1,-1,-1,-1,-1,-1,-1,-1,-1,-1,-1],"loss_changes":[4.281901E0,3.601805E0,4.2773857E0,1.633873E0,3.2954257E0,3.5426726E0,2.8224401E0,4.192276E-1,1.9706831E0,1.8863845E0,3.56786E0,1.6183102E0,4.599984E0,2.0662642E0,1.1778617E0,0E0,0E0,0E0,0E0,1.2776036E0,8.4202933E-1,3.5816274E0,7.2075963E-1,0E0,0E0,2.794127E0,2.4195108E0,1.1022725E0,2.5329709E-2,0E0,0E0,7.830739E-1,1.6778384E0,0E0,0E0,3.0184903E0,2.6896932E0,0E0,0E0,2.8477843E0,1.7022743E0,2.5618086E0,8.355466E-1,5.610023E-1,3.6863804E-1,0E0,0E0,0E0,0E0,0E0,0E0,0E0,0E0,0E0,0E0,0E0,0E0,0E0,0E0,0E0,0E0,0E0,0E0,0E0,0E0,0E0,0E0],"parents":[2147483647,0,0,1,1,2,2,3,3,4,4,5,5,6,6,7,7,8,8,9,9,10,10,11,11,12,12,13,13,14,14,19,19,20,20,21,21,22,22,25,25,26,26,27,27,28,28,31,31,32,32,35,35,36,36,39,39,40,40,41,41,42,42,43,43,44,44],"right_children":[2,4,6,8,10,12,14,16,18,20,22,24,26,28,30,-1,-1,-1,-1,32,34,36,38,-1,-1,40,42,44,46,-1,-1,48,50,-1,-1,52,54,-1,-1,56,58,60,62,64,66,-1,-1,-1,-1,-1,-1,-1,-1,-1,-1,-1,-1,-1,-1,-1,-1,-1,-1,-1,-1,-1,-1],"split_conditions":[-8.579439E-2,-7.2765E-2,8.994074E-1,6.8862146E-1,-1.8672313E-1,-8.491394E-1,1.1573157E0,1.2354077E0,-7.653902E-2,1.156654E0,2.6566625E-1,-2.4019253E-1,-4.690271E-2,2.895661E0,-5.898399E-1,-1.767346E-1,9.704236E-3,1.8077278E-1,-1.3982022E-1,1.0496689E0,-1.4508992E0,4.7781715E-1,1.2154012E0,1.3096592E-1,-1.6580312E-1,-1.5614945E-1,4.6719378E-1,-1.2262933E0,2.7634349E-2,-9.449426E-2,1.9063278E-1,1.458159E0,-7.5970357E-3,-8.768248E-2,1.6449511E-1,-1.1194912E-1,3.326579E-1,-1.6331753E-1,5.0205447E-2,-6.40358E-1,-7.935244E-1,3.3860514E-1,-7.842475E-1,9.697778E-1,6.180962E-1,3.479377E-2,1.327515E-1,-1.729127E-1,2.0049429E-2,-1.2681587E-1,1.791001E-1,-1.5746064E-2,9.501673E-2,-1.4096281E-1,7.787194E-2,2.0515586E-1,-1.0605329E-2,4.491711E-2,-1.4033571E-1,1.3340658E-1,-1.053153E-1,9.4834976E-2,-1.4335968E-1,1.3169014E-1,-8.6890444E-2,-1.7515919E-1,5.9227305E-3],"split_indices":[137,32,147,221,2,138,260,265,122,241,103,147,145,339,207,0,0,0,0,146,0,300,342,0,0,345,0,118,15,0,0,343,48,0,0,354,2,0,0,349,260,73,340,54,382,0,0,0,0,0,0,0,0,0,0,0,0,0,0,0,0,0,0,0,0,0,0],"split_type":[0,0,0,0,0,0,0,0,0,0,0,0,0,0,0,0,0,0,0,0,0,0,0,0,0,0,0,0,0,0,0,0,0,0,0,0,0,0,0,0,0,0,0,0,0,0,0,0,0,0,0,0,0,0,0,0,0,0,0,0,0,0,0,0,0,0,0],"sum_hessian":[3.4946143E2,1.8299675E2,1.6646466E2,2.6671614E1,1.5632513E2,1.3735909E2,2.9105581E1,2.1752361E1,4.9192514E0,3.0757145E1,1.2556799E2,9.216911E0,1.2814217E2,2.4242723E1,4.8628583E0,2.0716234E1,1.0361264E0,2.3727837E0,2.5464678E0,2.7252314E1,3.5048313E0,1.1319673E2,1.2371267E1,1.2438124E0,7.973099E0,4.4678635E1,8.346354E1,2.1552322E1,2.6904008E0,1.1008521E0,3.762006E0,2.2734917E1,4.517398E0,1.0521812E0,2.45265E0,9.007664E1,2.3120092E1,1.1219611E1,1.1516565E0,2.4198578E1,2.0480057E1,7.864353E1,4.8200006E0,2.3354497E0,1.9216873E1,1.3334177E0,1.3569831E0,2.0876986E1,1.8579304E0,2.5603917E0,1.9570062E0,3.7143997E1,5.2932636E1,1.6805592E1,6.3145013E0,7.0455036E0,1.7153074E1,5.659948E0,1.4820109E1,7.508452E1,3.5590181E0,1.045965E0,3.7740357E0,1.3004234E0,1.0350264E0,1.8216648E1,1.0002236E0],"tree_param":{"num_deleted":"0","num_feature":"384","num_nodes":"67","size_leaf_vector":"1"}},{"base_weights":[3.4006895E-3,-1.8098915E-2,3.5611188E-1,-5.7066426E-2,2.0206456E-1,-2.0850702E-1,4.9483088E-1,-1.9424003E-1,1.855143E-2,3.4041524E-1,-1.9717889E-1,7.021695E-2,-1.2779184E-1,5.7201666E-1,-9.1298394E-2,-5.6314706E-3,-4.2083657E-1,-5.8760803E-2,2.1480143E-1,1.2534396E-2,4.8920274E-1,1.2144911E-1,-3.7199527E-1,-3.220063E-2,6.464345E-1,-2.3086734E-1,3.3320135E-1,-4.768259E-1,2.9172927E-1,5.063016E-1,-9.187888E-2,-3.970473E-3,4.6372324E-1,-2.9399174E-1,3.472749E-1,5.6138515E-1,-1.16453506E-1,-1.6661885E-1,1.9701274E-1,2.0899568E-1,3.3805966E-2,-1.0841495E-1,1.2874459E-1,2.1181005E-1,-6.638462E-3,-1.5702865E-1,8.659373E-2,1.5942425E-1,-2.4658695E-2,1.9327733E-1,-2.7687306E-2,-4.487625E-2,6.212348E-2,-1.1618247E-1,5.2416053E-2,-1.3084249E-1,1.6776384E-1,-1.4555407E-1,2.7862333E-2,-5.229812E-2,1.5138644E-1,-1.02046974E-1,1.8652318E-1,-2.2356903E-2,1.0566318E-1],"categories":[],"categories_nodes":[],"categories_segments":[],"categories_sizes":[],"default_left":[0,0,0,0,0,0,0,0,0,0,0,0,0,0,0,0,0,0,0,0,0,0,0,0,0,0,0,0,0,0,0,0,0,0,0,0,0,0,0,0,0,0,0,0,0,0,0,0,0,0,0,0,0,0,0,0,0,0,0,0,0,0,0,0,0],"id":21,"left_children":[1,3,5,7,9,11,13,15,17,19,21,-1,-1,23,-1,25,27,29,31,33,35,-1,37,-1,39,41,43,45,47,49,51,53,55,57,59,61,-1,-1,63,-1,-1,-1,-1,-1,-1,-1,-1,-1,-1,-1,-1,-1,-1,-1,-1,-1,-1,-1,-1,-1,-1,-1,-1,-1,-1],"loss_changes":[2.5000403E0,2.678749E0,1.5866911E0,2.751571E0,2.6616242E0,5.26946E-1,1.13028E0,4.024833E0,2.6176116E0,1.713531E0,1.4894109E0,0E0,0E0,8.016162E-1,0E0,4.0789413E0,1.8462873E0,2.3661718E0,2.6559157E0,1.3363817E0,1.7518592E0,0E0,1.1926135E0,0E0,2.7519894E-1,2.9194534E0,2.8438423E0,1.5799055E0,3.7867078E-1,6.3886094E-1,2.0656905E0,1.9122417E0,2.203568E0,5.495584E-1,5.975122E-1,1.4515443E0,0E0,0E0,1.6397695E-1,0E0,0E0,0E0,0E0,0E0,0E0,0E0,0E0,0E0,0E0,0E0,0E0,0E0,0E0,0E0,0E0,0E0,0E0,0E0,0E0,0E0,0E0,0E0,0E0,0E0,0E0],"parents":[2147483647,0,0,1,1,2,2,3,3,4,4,5,5,6,6,7,7,8,8,9,9,10,10,13,13,15,15,16,16,17,17,18,18,19,19,20,20,22,22,24,24,25,25,26,26,27,27,28,28,29,29,30,30,31,31,32,32,33,33,34,34,35,35,38,38],"right_children":[2,4,6,8,10,12,14,16,18,20,22,-1,-1,24,-1,26,28,30,32,34,36,-1,38,-1,40,42,44,46,48,50,52,54,56,58,60,62,-1,-1,64,-1,-1,-1,-1,-1,-1,-1,-1,-1,-1,-1,-1,-1,-1,-1,-1,-1,-1,-1,-1,-1,-1,-1,-1,-1,-1],"split_conditions":[1.8017787E0,1.2463872E0,-1.7465517E-1,-8.6235635E-2,-2.4836408E-2,-1.095555E0,1.7166592E0,-6.4879704E-1,2.881632E-1,-6.559409E-1,-6.289829E-1,7.021695E-2,-1.2779184E-1,-9.7046804E-1,-9.1298394E-2,6.349344E-1,1.7798795E0,-1.229638E0,3.5000287E-2,-1.628756E-2,2.9306334E-1,1.2144911E-1,7.387451E-1,-3.220063E-2,1.8904692E0,1.1481118E0,-3.1204396E-1,1.962803E0,-7.345094E-2,-7.28201E-2,3.42132E-1,-5.9659976E-1,-1.293121E0,-1.4549066E-1,-1.2214115E0,-1.2217923E0,-1.16453506E-1,-1.6661885E-1,-6.05167E-1,2.0899568E-1,3.3805966E-2,-1.0841495E-1,1.2874459E-1,2.1181005E-1,-6.638462E-3,-1.5702865E-1,8.659373E-2,1.5942425E-1,-2.4658695E-2,1.9327733E-1,-2.7687306E-2,-4.487625E-2,6.212348E-2,-1.1618247E-1,5.2416053E-2,-1.3084249E-1,1.6776384E-1,-1.4555407E-1,2.7862333E-2,-5.229812E-2,1.5138644E-1,-1.02046974E-1,1.8652318E-1,-2.2356903E-2,1.0566318E-1],"split_indices":[284,143,26,135,303,203,200,242,232,365,195,0,0,143,0,316,245,247,43,117,89,0,341,0,275,315,275,352,42,137,171,342,355,205,279,294,0,0,44,0,0,0,0,0,0,0,0,0,0,0,0,0,0,0,0,0,0,0,0,0,0,0,0,0,0],"split_type":[0,0,0,0,0,0,0,0,0,0,0,0,0,0,0,0,0,0,0,0,0,0,0,0,0,0,0,0,0,0,0,0,0,0,0,0,0,0,0,0,0,0,0,0,0,0,0,0,0,0,0,0,0,0,0,0,0,0,0,0,0,0,0,0,0],"sum_hessian":[3.2783365E2,3.0989273E2,1.7940907E1,2.6392117E2,4.5971546E1,3.4392526E0,1.4501655E1,9.322993E1,1.7069125E2,3.4250126E1,1.1721419E1,1.1080251E0,2.3312275E0,1.3483585E1,1.0180691E0,5.143917E1,4.1790756E1,1.22954285E2,4.7736977E1,1.1029288E1,2.3220837E1,2.3416867E0,9.379733E0,1.2875296E0,1.2196055E1,3.1090618E1,2.034855E1,3.9053024E1,2.73773E0,6.016288E0,1.16937996E2,2.5930916E1,2.1806059E1,5.8208213E0,5.2084675E0,2.1788452E1,1.432385E0,7.111499E0,2.2682343E0,1.0868301E1,1.3277541E0,2.6335358E1,4.75526E0,9.4480915E0,1.090046E1,3.7109924E1,1.943099E0,1.4116728E0,1.3260573E0,4.827434E0,1.188854E0,9.843619E1,1.8501806E1,7.8737836E0,1.805713E1,1.7497276E0,2.0056332E1,3.7255385E0,2.0952826E0,1.182054E0,4.0264134E0,1.0763338E0,2.0712118E1,1.0139815E0,1.2542528E0],"tree_param":{"num_deleted":"0","num_feature":"384","num_nodes":"65","size_leaf_vector":"1"}},{"base_weights":[4.6145795E-3,2.8308403E-1,-2.3728883E-2,3.9951605E-1,-3.0024803E-1,3.583555E-2,-2.0934469E-1,2.6796926E-2,5.858835E-1,-1.425114E-1,7.3516816E-2,9.527122E-2,-2.3361236E-1,2.0330998E-1,-2.8806072E-1,3.9991525E-1,-3.2305953E-1,6.6263574E-1,-9.868806E-2,1.7768922E-1,-1.0195111E-1,-3.9151993E-1,4.3144262E-1,-2.5982723E-1,4.708188E-1,-3.9325586E-1,4.0085267E-2,1.6038871E-1,-2.0955164E-2,5.3099666E-2,-1.4073327E-1,-8.725212E-3,7.1898746E-1,2.7880037E-1,6.8633556E-3,-1.9770499E-1,3.576736E-1,1.3517447E-1,-4.5408726E-1,-9.6485734E-2,5.8108836E-1,8.198473E-2,-1.3502489E-1,-4.83781E-2,6.2476116E-1,1.00050546E-1,-4.7406593E-1,5.7573575E-1,-2.299571E-1,2.2972305E-1,1.8296292E-2,1.03183344E-1,-1.1276871E-1,1.6670094E-1,-3.351383E-2,1.1297919E-1,-8.1443414E-2,2.0669681E-1,-4.58498E-2,-1.4867799E-1,8.515616E-2,1.9430587E-1,2.3261655E-2,2.0226683E-1,5.1523376E-2,1.2917934E-1,-1.302691E-1,4.7568537E-2,-1.5877737E-1,2.0840468E-1,2.368472E-2,-1.3605407E-1,7.224507E-2],"categories":[],"categories_nodes":[],"categories_segments":[],"categories_sizes":[],"default_left":[0,0,0,0,0,0,0,0,0,0,0,0,0,0,0,0,0,0,0,0,0,0,0,0,0,0,0,0,0,0,0,0,0,0,0,0,0,0,0,0,0,0,0,0,0,0,0,0,0,0,0,0,0,0,0,0,0,0,0,0,0,0,0,0,0,0,0,0,0,0,0,0,0],"id":22,"left_children":[1,3,5,7,9,11,13,15,17,-1,-1,19,21,23,25,27,29,31,-1,33,35,37,39,41,43,45,47,-1,-1,-1,-1,-1,49,51,53,55,57,-1,59,-1,61,-1,-1,-1,63,65,67,69,71,-1,-1,-1,-1,-1,-1,-1,-1,-1,-1,-1,-1,-1,-1,-1,-1,-1,-1,-1,-1,-1,-1,-1,-1],"loss_changes":[2.6773782E0,2.2482343E0,3.4131277E0,1.8286033E0,6.677829E-1,3.770551E0,2.494098E0,1.4213263E0,1.4574723E0,0E0,0E0,3.1465583E0,4.641326E0,1.683109E0,2.2036686E0,3.6875296E-1,4.9652618E-1,6.686692E-1,0E0,2.3489313E0,2.5951824E0,2.045529E0,1.161373E0,6.5617776E-1,9.123597E-1,1.9644284E0,2.4892511E0,0E0,0E0,0E0,0E0,0E0,4.2723846E-1,3.7746696E0,3.4219954E0,2.1407578E0,1.8382201E0,0E0,1.1520977E0,0E0,2.0364308E-1,0E0,0E0,0E0,3.90954E-2,1.528192E0,1.5327187E0,2.8472424E-1,1.3244894E0,0E0,0E0,0E0,0E0,0E0,0E0,0E0,0E0,0E0,0E0,0E0,0E0,0E0,0E0,0E0,0E0,0E0,0E0,0E0,0E0,0E0,0E0,0E0,0E0],"parents":[2147483647,0,0,1,1,2,2,3,3,4,4,5,5,6,6,7,7,8,8,11,11,12,12,13,13,14,14,15,15,16,16,17,17,19,19,20,20,21,21,22,22,23,23,24,24,25,25,26,26,32,32,33,33,34,34,35,35,36,36,38,38,40,40,44,44,45,45,46,46,47,47,48,48],"right_children":[2,4,6,8,10,12,14,16,18,-1,-1,20,22,24,26,28,30,32,-1,34,36,38,40,42,44,46,48,-1,-1,-1,-1,-1,50,52,54,56,58,-1,60,-1,62,-1,-1,-1,64,66,68,70,72,-1,-1,-1,-1,-1,-1,-1,-1,-1,-1,-1,-1,-1,-1,-1,-1,-1,-1,-1,-1,-1,-1,-1,-1],"split_conditions":[-1.2272146E0,4.373244E-1,-8.2704164E-2,-7.848378E-1,5.748657E-1,9.641171E-1,-2.9505837E-1,-1.0444928E0,5.869975E-1,-1.425114E-1,7.3516816E-2,3.937889E-1,-9.770532E-2,-6.5959245E-1,2.1231696E-1,-9.0623516E-1,-1.4761693E0,-1.257586E0,-9.868806E-2,1.1762113E-1,1.058614E0,-9.164695E-1,-1.1567681E0,-5.50459E-1,-3.8776112E-1,-5.7542276E-1,-7.903316E-2,1.6038871E-1,-2.0955164E-2,5.3099666E-2,-1.4073327E-1,-8.725212E-3,3.568036E-1,1.0670117E0,-7.598868E-1,-1.0735322E0,-7.020531E-2,1.3517447E-1,2.3860562E0,-9.6485734E-2,2.2204785E-1,8.198473E-2,